3
784 30 10
1.296907,1.434197,-0.774032,0.471973,0.860563,-0.166829,-0.215153,-0.424552,-0.412589,-3.510115,-0.721573,-0.791315,1.787937,-1.248203,-1.360862,1.976114,-2.102483,-1.065023,-2.047194,0.611102,-0.977529,-0.288216,-0.123322,0.202585,-0.452142,0.222970,-0.477100,1.621874,-0.152858,0.795816,0.787678,-0.851503,1.503695,0.766075,0.617930,0.964884,-0.764837,-0.640056,-0.463509,1.818902,1.519861,-0.567458,-0.398807,-0.505147,-0.145954,-1.562394,0.115601,-0.095583,0.189456,1.227518,-1.279091,0.007442,1.066553,1.125270,-0.755957,-0.830995,0.176902,0.909109,-0.114021,0.319615,-1.480113,-0.768809,0.571196,-0.096153,2.167900,0.053597,-1.114597,-0.991234,0.298215,-0.897815,1.699458,0.419473,-0.739064,-2.295851,-0.433902,0.170424,0.626052,1.299717,1.755434,-0.279589,2.106927,0.553863,-0.130010,0.359149,1.413701,0.513118,-0.893876,-0.988135,-0.123948,-0.052859,0.552292,-0.359474,-0.416122,-0.353280,0.396439,-0.100793,-0.345450,-0.767712,0.224326,-1.241994,0.506292,0.974376,-1.011013,0.235039,-0.136610,-0.536175,0.410101,-0.803121,-0.200883,-1.935718,0.249354,-0.336001,-0.607007,-1.977277,0.559593,-0.427237,-0.976859,-0.333575,0.450254,0.952344,-0.097049,0.939045,1.015929,-1.328224,-0.595470,1.505938,-0.410365,2.223793,0.536525,1.023135,1.668681,2.206852,-0.272625,-1.384858,-2.967083,-1.728687,1.769748,-0.562438,-1.447910,0.406759,0.171697,0.692719,-0.409023,0.271963,-0.219330,0.346481,0.290257,0.752285,-0.767114,-0.757544,-1.325271,-1.743286,-0.247967,-1.157015,-0.630162,-1.064983,-0.865647,1.079705,-0.415633,1.370311,-1.950368,-1.414899,-2.040313,-1.209111,-1.188127,-1.713383,0.097014,0.059520,-0.207203,0.211479,-0.070838,-0.088563,-0.500303,-0.308051,1.903228,-1.021227,0.388200,-0.816023,-1.065397,-1.596073,-1.334995,2.018944,-0.748610,0.035464,0.470249,3.708954,3.132808,0.950792,-0.136109,1.341869,-0.284811,-0.699721,-0.444750,0.388316,0.872942,2.456981,0.730078,-0.217367,0.682506,-0.213388,1.208538,1.651111,0.313606,0.247632,-1.575078,0.875870,0.798170,-0.951386,-0.697022,-1.216444,-2.563602,-1.441594,-0.874602,0.851762,2.300215,0.633669,0.006679,-0.133005,-0.562688,-0.584839,-2.537745,-0.227462,0.609841,0.678146,0.363244,1.399785,0.956278,-0.495731,0.810281,-0.255078,3.297090,3.676946,1.802207,0.731790,-1.301192,-1.459409,1.120505,-1.951468,-3.459423,-0.832437,1.127618,3.927230,1.018233,1.952429,-1.565307,0.247637,2.333125,-1.948080,-1.890162,-1.936525,1.120741,-0.548250,-0.061053,-2.941419,1.151400,0.838242,2.660358,2.229324,1.498025,1.094039,-1.502277,0.940670,-0.277387,-0.652094,-2.038151,-5.722494,-4.272276,2.261059,3.576420,2.381939,0.867413,2.030160,3.299675,2.852665,0.543648,-0.992551,-2.829326,-0.847583,-1.377758,-0.587758,0.262387,-1.614427,0.261487,-0.113053,0.826397,-0.437041,0.711079,-1.249778,0.805802,0.647079,0.515566,-2.106642,-5.084412,-4.305431,2.017741,5.262853,4.398673,4.242106,1.842694,4.752024,1.929160,2.622312,-0.036243,1.485703,-1.951505,-0.471204,-0.679531,-0.310194,0.030970,-0.885024,0.468631,-1.044685,-0.365439,0.790228,-2.648746,-0.142024,0.032443,0.190714,-1.940256,-1.570849,-2.684304,2.595592,6.176016,2.916648,-0.055244,-0.311002,0.503684,3.543018,2.182700,3.246652,2.589907,2.637816,0.736692,1.148456,-1.322993,1.587392,-2.565978,1.776952,1.356780,-1.446657,-0.943814,-0.584759,-2.030504,-1.831344,-2.360763,-1.821631,-1.639777,-1.838678,-0.053420,2.969366,3.468846,0.014817,1.962268,-0.717918,0.551315,0.026007,-0.375032,2.289880,0.990043,1.286489,-0.020568,1.027003,1.269454,0.355275,-0.069440,0.791999,-0.033127,0.353110,-0.819518,-0.087787,-0.794886,0.276036,-1.027070,-0.842399,-2.440693,-2.355304,1.030814,3.234522,0.994197,4.769055,3.177490,0.333774,-1.737441,0.750708,-0.036994,-0.878541,-0.986103,-0.060584,0.617815,1.641627,0.599604,-0.054662,-1.234753,-0.187008,-0.038438,0.088851,-1.883967,-1.454825,-4.743386,-1.338580,-0.837352,-0.936268,-2.127302,2.470810,1.732210,3.441818,3.032751,2.361001,2.848612,0.067744,-0.027657,1.205429,0.631388,0.122107,-2.077739,-1.169842,-0.876833,-2.051490,0.182342,-0.167548,0.824052,0.282248,0.728377,-0.698691,-1.616098,-1.670512,-3.196050,-2.468417,-1.831418,-0.467911,-1.816869,2.469765,0.982384,1.944707,3.076034,2.715512,1.728453,-2.245396,-1.911628,0.100878,-1.682454,0.250862,-1.547745,-0.889465,-1.041821,-0.918439,1.623212,-0.040635,-0.758485,-0.584970,0.948206,0.502854,-1.136009,-1.409827,-0.175314,-0.030972,1.006063,0.135902,-1.617530,-0.043456,1.308487,1.901408,3.525008,0.688865,0.240318,-1.135447,-1.408823,1.470776,-1.348657,-0.583658,-1.036428,0.390934,-0.417638,0.060421,0.512571,0.679215,-0.543249,-1.253713,-0.159617,0.864173,-0.556201,1.458042,-0.796467,2.189706,0.570000,0.397118,0.943186,1.438231,2.633501,6.582204,-0.838832,-0.276608,-1.438118,-1.709911,0.091849,-0.581952,-1.767763,0.010813,0.013127,0.395298,-0.173316,-1.848370,1.126903,1.075460,1.393449,0.603059,0.082769,1.556288,-0.348738,1.236953,-1.017212,-1.110351,2.364691,-0.125303,1.696039,3.948264,5.995418,4.663023,-1.323514,-2.909889,-2.281343,-0.876318,-0.389096,-1.338541,-0.349531,-0.799220,-1.632404,0.619075,-0.296869,0.591924,-1.227136,-0.212385,-0.359737,-0.469859,-1.233849,1.298903,3.009385,0.048875,-1.750465,-0.165050,0.127816,2.875000,1.758589,1.432594,2.108894,0.479761,-4.918063,-4.616003,-0.321345,-0.015337,0.707552,-1.981820,-0.079806,-1.391416,0.127758,0.601542,0.223475,-0.590523,0.950004,0.188425,-0.425952,-0.215020,0.389488,0.802182,1.376652,1.296689,1.314390,2.061267,2.594496,3.765424,1.584305,0.639767,0.922621,-1.968829,-3.166606,-1.834165,-2.047652,-0.732695,-0.658232,0.637648,-0.390233,0.769283,-0.398592,-1.203733,-1.321031,0.866431,0.897454,0.248706,0.411875,1.236173,1.198614,1.267451,0.485818,1.167182,0.159527,2.041756,-0.398436,-0.169141,0.794939,-0.850843,-1.244140,0.732927,-1.866254,-1.481884,-0.677898,-1.309539,-0.189384,0.018957,1.244237,1.135664,-2.416010,0.051452,1.114646,0.796145,-0.777263,0.726147,1.619113,-1.409739,0.964054,1.580775,1.587786,2.452326,1.880837,2.718628,1.997565,-0.063122,-0.881547,-0.690679,-2.961370,-1.491150,-1.089685,-1.666027,-2.332684,-1.620193,-1.872847,1.609110,-0.063859,0.570174,0.178655,-1.794967,1.667476,0.823880,-0.800732,1.314654,0.315861,-0.270604,0.947637,0.787110,0.319722,0.427799,-0.062802,3.283486,1.168693,1.015382,-1.452645,-0.701191,0.512098,0.425289,-0.676140,-2.223049,-1.561669,-1.091226,1.478649,-0.606992,0.853084,-0.773501,-1.807689,-0.536889,0.470931,1.146765,0.931655,1.615012,-0.996382,0.264862,-1.911493,-0.352313,-0.043245,-1.052941,0.026732,2.155291,0.336177,-0.524277,0.606824,-0.434382,-1.140281,-1.197249,0.732882,1.256443,-0.019620,0.345007,-3.512306,-1.715670,-2.824644,0.437095,-0.114733,-0.162325,-0.978350,0.830539,-0.744933,0.058692,0.242926,-0.540733,-0.519083,1.371409,0.776857,-0.607161,-0.056489,-0.838493,-1.532275,0.272183,0.635975,0.903193,0.781733,-0.654570,-0.398652,-0.295002,-3.064214,-3.664022,-2.375112,-1.462249,-0.634502,-1.879356,0.725127,-0.573379,-1.341994,1.938577,-0.199668,-0.703879,1.112887,-1.947605,0.876459,0.113414,-0.485885,0.252444,1.395540,0.791490,-1.567864,-2.205423,0.068151,-2.502654,-3.144871,-0.232325,-1.372928,-2.594539,-0.823139,0.199767,-1.083638,-1.910828,-1.565258,-0.071812,-1.576970,0.854062,-0.446237,-0.582049,-0.732864,0.269039,-0.828702,-0.341849,0.186033,-0.903423,-0.389567,0.017732,-1.165766,-1.030533,-1.148515,-0.671470,-0.546231,0.002820,2.392999,-0.299987,-0.352143,0.234271,-0.211249,0.167061,1.282655,1.236482,0.493112,-0.302667,0.893724,1.002449,1.148575,-0.151386,-0.082913,-1.347291
1.011497,-0.583762,0.731413,-1.147619,0.297754,-0.493488,0.868604,0.338752,0.188227,0.550662,0.478547,-0.843286,-0.588668,-1.848508,-1.133624,1.892229,0.217590,-0.989331,-0.580163,0.345624,0.814515,-0.224565,-1.772792,0.941150,-0.517931,0.344447,-0.118788,-2.027058,0.103330,-0.822585,0.768601,-0.696920,-1.231165,-0.166526,-0.734785,1.789925,-0.860454,0.195101,-0.413262,-2.641276,0.023020,-0.631671,0.952072,-0.359322,-1.156005,0.095097,1.315444,-0.138379,1.552863,-0.087782,-0.628181,0.462642,-0.344811,0.208948,-1.037014,0.519180,0.935406,-0.004218,1.198560,-2.613976,0.617317,-0.353389,0.006483,-0.364315,-0.791754,0.934797,-0.704807,-0.306702,0.608995,1.546262,-1.023250,0.334733,-0.018516,-1.718049,0.654494,0.461272,-0.048962,0.716096,1.430927,-0.393654,-1.055160,1.203066,-0.081596,-0.616372,0.585923,1.162942,0.829867,0.596580,1.395200,0.236860,0.674179,-0.638501,-0.013081,-0.633119,0.061082,-0.484739,-0.759167,-1.735514,2.349300,0.067785,-0.369928,1.521625,-0.220352,-0.349198,-0.261881,-0.932842,0.685659,1.028007,-0.297834,2.369725,-0.165506,-0.150253,1.358134,1.235040,-0.232710,1.459052,-1.096175,0.589056,-0.734893,1.081366,-0.373105,1.242595,-2.276858,-0.141440,0.676325,1.378061,2.010281,1.080318,0.935917,0.597740,1.990890,-1.035655,-0.389673,0.318393,0.890545,-0.487941,-0.525989,-0.367862,-1.862073,-0.364215,-1.372729,0.947803,-0.932672,-0.957313,0.178085,-1.511463,-0.207945,-1.067382,-1.454377,0.766309,-1.168477,-1.148351,-0.173546,-0.698250,1.347399,0.535046,2.678991,0.242858,0.167888,0.639229,0.618713,-0.818018,0.989252,-0.240851,-0.147170,0.613107,-0.169110,1.022055,0.751223,-0.367691,-0.156532,-1.371819,-1.467996,-1.238381,-1.474506,0.314929,-1.200070,-0.416485,-0.586025,-0.111944,2.551415,-0.589532,1.919459,2.332926,1.715220,-0.178814,0.477849,-0.039463,0.413668,-0.332419,1.774936,0.415648,1.110549,-0.143120,-0.025872,-1.318793,-0.322753,-0.939482,0.703754,0.016746,1.033044,-0.178751,-0.557500,-0.198039,-0.006551,-0.624191,0.585320,0.340677,-1.314828,-1.532967,-0.242578,1.435765,0.348472,0.775443,1.883060,-0.085722,-0.899121,0.196374,-0.393316,0.172951,0.280743,0.486414,0.712237,0.241620,-0.585740,-0.196367,1.981101,-1.505639,-0.238126,-1.095988,-0.524927,-0.886333,0.429819,2.430123,-0.511042,0.418633,0.472649,-1.893943,-0.577354,1.673145,1.712512,2.260261,-1.367698,0.391237,1.044056,-0.825733,0.851587,0.711042,-1.361356,-0.879336,0.348859,1.109940,0.113834,-1.077425,-0.139405,1.850527,0.400409,-1.680641,1.366113,-0.762263,2.169172,0.508546,1.256371,-0.483840,-0.360336,-1.183563,-0.622673,1.708421,1.817278,-0.122309,0.384177,-0.010763,1.027430,-0.054752,-0.327228,0.715702,-0.322496,0.111554,-0.200592,-0.897631,-0.621614,0.877920,2.024046,-1.166282,1.038178,0.995846,1.534091,0.592405,2.210294,1.396650,1.261039,-1.567658,-0.802874,-0.325851,-0.442663,2.132286,0.734876,1.158772,-0.326846,-0.203629,-0.092699,0.232181,-0.304501,0.632824,-0.487083,-1.046869,-0.922511,-0.023966,-1.501887,-0.148106,-0.789574,-0.741267,1.254942,-0.149364,1.824817,1.724268,0.012418,0.714629,-0.499826,-1.580438,-1.878411,1.448605,0.444240,0.716960,0.832700,0.304742,-0.436460,0.377782,0.639634,0.426814,0.025596,-0.360200,0.372550,-1.990207,-0.051386,-0.438037,-0.640625,-1.709406,-0.831702,0.737818,0.707071,1.718802,0.223456,0.017760,-0.310349,-0.452932,-0.000599,0.676686,-0.899305,0.627286,-0.128890,0.305727,1.126087,2.441584,-0.181997,0.483360,0.067397,-0.233162,0.283676,0.499462,0.688423,0.822877,-0.665688,-0.198354,-0.632041,0.130905,0.484334,0.105862,-0.911876,-0.770340,-1.109483,0.920567,0.604782,-0.499053,0.558216,0.460366,-2.171082,0.333926,1.019830,1.808806,-0.734880,-1.204144,-1.058952,-0.094080,1.186119,-1.128485,0.433086,0.258708,-3.600814,0.537287,-0.981080,1.338258,1.895476,1.596349,-1.008341,-0.290197,-0.358583,-1.927423,0.453107,1.372063,-0.071120,-1.334514,-0.856174,-0.398674,1.879986,1.005236,1.228530,-0.240093,0.874349,-0.033017,1.049902,-1.349630,-0.631495,-1.023288,-0.957445,1.345770,-0.204428,0.393013,-0.804619,-1.203764,0.005948,0.850960,0.087070,0.223448,1.663651,1.271529,-0.902345,0.206369,1.532187,1.023492,2.364496,0.319680,0.451315,1.363824,2.884445,-0.984104,-0.635951,0.859678,-1.749021,-0.596784,-0.188632,0.601398,0.536621,-0.842910,-0.788576,0.181286,0.871542,-0.823862,-0.757613,0.957854,0.176108,0.203590,0.944859,-0.501201,1.127121,0.922171,0.719895,0.497461,0.371796,-0.447103,1.032500,1.679225,0.237284,-0.059956,-0.359274,1.338821,-0.996212,-0.588257,-1.751448,0.425686,0.720402,1.310897,1.692156,-0.731092,-0.268018,0.910058,-0.448420,-0.697092,-1.680364,-0.175146,0.033255,0.298258,0.502591,0.648094,0.054556,0.597146,-0.629521,1.039292,1.461713,0.512180,0.552658,1.307934,-0.125156,0.495511,-0.171509,1.316861,-0.323546,-0.646394,-1.506625,-0.393527,-1.740209,1.579417,1.567239,1.550811,-0.730980,-1.029553,2.382416,0.812313,0.691544,-0.121708,-1.500151,0.116518,1.584720,-0.186460,0.380465,0.633228,0.411789,-0.954480,-0.386771,2.210215,0.599614,1.947040,0.341081,-0.248196,0.351360,-0.376703,-0.006236,-1.619028,0.086507,-0.396659,-0.151714,1.396097,0.200451,-1.672537,-0.551219,-3.015627,-0.299990,1.134673,-0.236189,-1.042091,0.274352,0.498363,0.636296,1.193538,0.484919,0.878015,-1.189917,1.052567,0.262068,0.136700,-0.996478,0.564244,-1.010897,0.075966,1.494099,0.525614,-0.420502,-0.971759,1.239330,0.658987,0.524044,0.132875,0.170334,0.544252,0.648644,0.874522,0.633947,1.020909,0.332388,0.328695,1.521797,0.621262,-0.671831,0.545958,0.944131,-0.293010,1.460616,-0.640017,1.365249,0.366605,-1.290202,-0.322136,0.704067,2.729401,-1.171944,-0.342716,0.013484,-0.115326,-0.813610,-0.273383,-1.501116,-0.779462,0.214463,-0.969809,-1.658911,0.648368,0.907994,0.865896,0.508810,0.520883,0.683962,0.863715,0.574836,0.790424,-0.412011,-1.442858,0.235184,-0.262852,-0.406258,0.340413,-1.481646,1.998392,-1.631171,-1.104099,-1.785833,0.498770,0.608123,-0.272058,0.397154,-0.130968,0.753810,0.685272,1.425289,1.402124,0.218377,0.229445,1.234298,-0.170216,0.616206,-0.562387,-0.840323,0.568092,1.921073,-0.050123,-0.860653,-0.207656,0.222953,0.289894,-0.213494,0.705894,0.428216,-0.273557,-0.580043,1.710396,1.131862,-0.199135,0.514893,0.003861,-1.550745,-1.213775,0.863189,0.605198,-1.424152,-0.228329,0.169186,1.155181,0.638611,0.104399,-0.356292,-0.480814,0.332846,0.171493,0.071526,1.669300,0.729021,-0.883228,-0.399620,-0.880082,-0.968527,-1.110145,0.438678,0.733859,-1.108401,0.408854,0.143077,1.006722,0.146749,1.427024,1.377370,0.249407,-1.695160,-0.061499,1.071833,0.038748,1.869642,0.089896,0.076247,-1.343374,1.988834,-0.053038,-0.540427,0.260584,-0.516155,0.122713,1.633712,1.567082,-1.544666,-0.896283,0.454951,0.727521,-0.851405,-0.744294,1.867728,-0.093902,-1.650951,0.551390,1.131167,0.589274,-0.237761,0.143735,0.929275,-1.112739,0.424957,-1.415764,-0.807742,-0.519311,1.240147,0.909127,1.494191,0.078745,-1.092206,0.142948,0.801416,-0.125786,0.624472,0.625877,-0.450270,0.816933,-0.135060,1.165522,0.739028,1.246729,0.923824,-0.642314,-1.988904,-0.392903,-0.610324,0.193919,-0.904309,1.214737,1.205881,-0.227741,0.019307,-0.594770,-0.453634,0.651438,-0.130594,1.282520,1.218446,1.420101,0.958845,1.009192,-0.332778,-0.938367,0.397564,0.370793,0.798396,-0.671463,0.242118,-1.031819,0.340993,0.453597,-1.862457,-0.593275,0.772369,0.594168,1.239328,-0.535878,-0.404096,-1.300461,-0.981129,0.759186,-0.095496,1.451555,1.045398,-0.153772,-0.339833,-0.671413,1.054172,-0.368394,0.145581,1.951965,-0.890164,-2.310827
0.126852,0.894637,1.024230,1.257427,-1.191391,0.012359,-2.102596,-2.181416,-0.868642,-0.187970,-0.024377,-0.307249,-0.819110,2.065934,0.479444,2.094939,0.817415,0.406791,-0.504024,0.603560,0.501512,-0.086508,-0.305774,-0.431228,-0.391501,-0.832946,2.056476,2.331168,0.192366,0.661764,-0.558057,0.998494,0.668857,-0.078895,-1.773709,0.019449,-0.874536,-0.127694,0.117780,0.712015,-0.737759,0.718104,-0.052994,-0.358164,1.257493,0.339442,-0.314430,0.438366,-1.491477,0.856252,0.511271,0.704680,-0.981404,-1.061137,0.464218,0.883679,1.285989,3.265009,0.454904,1.017953,-1.625778,0.740354,0.568929,-0.148046,-0.346779,-0.105569,1.824478,2.451912,1.348773,-0.479747,-0.182560,2.226920,0.628348,1.546122,0.357737,1.047839,1.420011,1.523753,-0.126114,1.901294,0.207291,-0.730629,-1.241616,-0.930999,0.573251,-0.276861,-0.820122,2.207381,-0.881236,-0.023294,-0.815763,0.801948,1.246741,1.358025,0.566641,0.112766,0.805604,1.057268,0.393783,-0.601165,-1.281754,0.318896,-1.202945,1.284258,0.427711,0.441483,1.693989,0.810625,0.287819,-1.772798,-0.251924,0.490052,0.720506,-0.714709,-0.337091,-1.962359,-1.275697,-0.820025,-0.975514,0.952404,-0.293709,2.390328,2.251969,-0.500642,-1.153037,-0.485744,-1.119944,-1.995161,-2.402632,-1.157700,-2.965930,-0.043064,0.487025,0.740549,1.352337,0.272009,-1.415843,0.082203,-0.592273,1.380108,0.985366,1.482356,0.495478,-0.427238,-1.693051,-0.744387,0.388891,-0.191126,-0.855635,-0.460395,-0.041214,-0.174399,-1.663744,0.766359,1.224172,1.048997,-0.723435,1.207684,0.829865,-0.793643,-0.400134,-1.870128,-1.290140,-2.361652,-0.845363,-1.246740,0.150638,0.091896,-0.706154,-0.938433,0.655240,-0.911453,-0.310886,-0.750889,-1.030745,0.140107,-1.719028,-1.454288,-1.453288,-1.367049,-2.806830,1.128761,-0.323518,-1.245018,0.924200,-0.478727,-1.656286,-2.430206,0.311946,0.068347,-1.851050,-4.033411,-1.299527,-1.580800,-0.700413,-1.058063,-2.710924,-0.842856,-0.806821,0.312439,-1.813970,-0.804517,-0.918142,-2.754510,-1.915790,2.254035,-2.942590,0.651838,-0.165857,-1.113586,-2.803068,-0.597573,-0.793092,-0.653874,-1.854945,-3.236219,-0.934755,-3.069643,-2.834668,-2.540761,-3.732034,-1.297451,0.477292,-1.786170,-0.585611,0.233574,-1.831531,-0.272996,-0.602750,-1.290125,-0.670465,-2.408356,-0.472172,-0.983424,0.228347,-1.727861,-1.283693,0.228040,-0.771064,-0.534015,1.466258,-1.013459,-1.937588,-1.952086,-0.730662,-1.441517,-0.798872,-1.778852,-2.327863,-1.310158,-2.362064,1.370412,0.708219,-0.488048,1.444069,0.089318,-1.327857,-1.541074,0.597197,0.091692,-2.322529,-0.840065,-0.043953,-0.322893,-1.107094,-2.079083,-1.705604,0.633931,0.108754,0.317904,-0.972320,-1.807545,-2.653206,-2.350638,-0.670352,-2.245177,-2.453314,-0.191471,-0.417541,-0.124916,-1.459149,1.757165,-0.516256,-0.234280,-0.316800,-0.249873,0.333735,0.317171,-2.767453,-1.241898,1.054850,-1.551807,0.682981,-1.158462,-0.629264,-1.185365,-0.759815,-0.560287,0.514687,0.666352,-1.844068,-1.977797,-2.290555,-0.267507,-3.632304,-1.402089,0.290150,0.204247,0.498138,-1.277471,0.416717,-0.453901,-0.746995,0.640426,0.676012,-0.841030,-1.077310,-0.096251,-0.530319,-0.794807,-2.662737,-3.653401,-4.054737,-3.760054,-3.240496,-2.248348,-1.803520,1.450759,0.634948,-0.270615,1.816969,-1.851263,-2.292466,-0.447930,-0.859486,-0.320767,-0.106288,1.202657,0.282696,-0.819496,0.357572,0.877941,0.991082,-0.400581,-2.187083,-1.191483,-3.042414,-1.201997,-2.529043,-2.426445,-6.156473,-4.338896,-0.798191,-2.138747,-0.749550,1.290519,0.005075,0.101527,1.818290,-2.480197,-0.175901,0.572988,2.450459,-1.164848,-0.608208,-0.233782,-0.496103,-1.163124,1.508337,0.315173,1.991791,0.143980,0.356602,-2.545700,-2.427554,-1.582993,0.942893,-0.949816,-1.287476,-2.889714,-2.613724,-3.285298,-1.134967,-1.988736,-0.457533,-0.125560,1.979618,2.414879,-0.025446,1.119182,1.056316,1.239101,0.760757,-0.088009,-0.871054,0.369230,-1.865103,1.586525,4.456691,4.309944,3.019665,0.875378,-0.616824,1.127017,0.127982,-1.053814,-1.847390,-2.427482,-1.638441,-2.275873,0.285547,-1.900662,1.297868,-0.333099,-0.124355,1.592229,2.658427,0.775857,1.065633,-0.420990,0.195389,0.770800,1.046803,1.922914,0.746985,1.583696,3.055587,4.984475,5.036884,2.404679,1.082317,1.726565,-0.028072,-2.055623,0.527369,-0.242104,-0.381953,0.559709,-0.320469,0.415609,-0.603924,-0.502832,-1.555595,1.478370,3.415404,2.392216,0.060828,-0.196303,-0.617072,-1.472446,0.129563,0.808860,-1.145906,-0.257860,0.918257,4.237020,3.313428,4.332060,3.256155,3.434319,0.111251,-1.109700,0.282707,0.490263,-0.356588,0.573118,0.788201,1.640264,2.256835,2.185572,-0.634604,0.527075,0.367355,2.232258,-0.089369,0.730373,-0.315713,-0.862546,1.176094,0.325753,-2.871386,-0.737331,-1.102792,1.212163,1.473725,2.035369,4.804353,3.934114,2.376440,2.769856,1.163733,3.036488,0.805326,2.004825,1.941271,0.930885,2.272348,0.512617,2.042905,0.464933,2.518989,1.903131,-1.372306,1.114388,-1.600175,-0.271117,-0.915988,-0.694517,0.935648,-0.862831,-2.214613,1.787997,1.385951,1.987335,3.287275,3.983144,4.958357,2.549545,0.486131,0.599459,2.334920,1.532086,-1.539527,2.159811,2.585293,2.255980,2.586650,1.858427,1.649012,2.294034,0.809894,-0.311312,-1.167793,-1.142914,-1.304707,0.051459,-0.608168,0.155250,0.512488,0.534730,1.677501,0.123361,1.496258,3.544978,2.826714,-0.002136,0.923969,3.197443,2.422259,2.299408,1.449765,2.913312,3.803997,0.510707,2.735614,2.495040,2.872877,-0.690695,-1.512229,1.145077,-0.430697,0.171568,0.234019,0.430449,2.346651,0.093047,-1.016891,0.867309,-0.352717,0.383722,0.713975,2.411877,0.181436,-0.805924,1.668637,-0.513065,2.344929,0.549737,2.102037,3.789251,0.434429,0.258467,-0.003133,2.565191,-0.642072,-0.990009,1.456009,-0.112014,0.560389,-1.195455,-1.773098,0.458042,1.319151,2.494800,-0.189949,-0.747719,-0.275530,1.431296,0.918895,1.718778,0.459236,-0.051953,-0.720381,1.442181,-0.669458,0.122838,-0.984226,0.394853,0.030838,2.172821,1.410276,2.883586,0.110734,2.830066,-0.020290,0.746592,0.500254,0.912900,1.408250,-0.536685,1.991926,-0.917220,-0.243005,0.399715,0.722307,0.560807,1.000873,2.925866,-0.379367,-2.191966,-1.173832,-3.088430,-1.404448,0.019343,0.142030,-0.399976,1.774292,2.113426,3.010880,0.293551,1.684329,-1.729346,-0.646806,-0.344652,1.066668,1.167350,1.242869,0.287311,-0.829674,1.588688,-0.823692,-0.143201,-1.455138,-0.483354,1.370093,0.667242,-0.418366,-2.006716,-0.626107,-1.321362,-2.608220,-4.147473,-1.375414,-0.624646,0.091660,2.084892,1.067759,1.130178,1.089685,0.249889,-0.549878,-1.797737,0.132876,0.284870,1.416594,0.614531,-1.127733,-0.869455,-3.842184,-1.637861,-2.396740,-1.761983,-4.229776,-4.361259,1.037546,-1.301948,-2.081803,-4.224218,-2.361796,-2.028256,-2.162998,-1.190864,-0.647342,-1.293566,-0.476476,0.444025,0.898975,-2.809277,0.934391,-0.439307,1.533166,-1.463559,-0.444973,0.962945,0.820817,-1.432822,-0.786792,-2.069920,-4.951265,-3.076827,-3.884677,-1.428318,-2.897640,-0.486819,-0.517141,-1.682147,-2.792786,-0.498978,-0.468985,0.007346,0.689006,-1.210493,-0.256453,-0.574557,1.428660,0.918791,-0.967264,-1.127483,1.014493,-0.047666,1.367670,-1.305469,0.148081,0.186410,-0.116762,-0.602796,-1.242120,-2.346675,0.856200,-0.074473,-1.616886,0.124706,0.247831,-1.118715,-0.633353,1.578875,1.255336,-0.068659,-0.456166,0.155810,-1.050749,0.961754,0.189108,-0.183123,1.036415,-0.969510,-0.155738,-0.773228,-0.159004,-0.599569,-0.204134,0.095882,-0.311390,-1.666045,-0.260113,-0.978311,-1.278511,2.805508,1.756240,-0.548862,0.192956,-1.046012,-1.057368,-0.505071,-1.127218,0.226018,1.202300,-0.960635,1.519796,-0.163280,0.300473,0.890762,-0.132377,-1.255770
-0.395047,-0.411678,-0.955783,0.195480,1.264161,-0.441400,-0.963174,1.330182,-0.327182,0.291935,1.429143,0.872829,-0.231043,-0.259713,-0.435533,-0.432704,-0.136824,0.802716,-0.353273,-0.844807,-0.631732,1.240203,0.391595,0.019016,-1.035462,0.224876,-0.521496,0.258808,-0.967145,-2.209704,-1.066132,0.599782,-0.372644,-0.033052,0.217835,1.137673,0.357803,2.490686,0.987410,-0.526321,0.842566,0.375755,-0.371376,-0.386286,0.430177,-1.790994,1.076799,-0.225881,-0.627752,-0.384058,0.055356,-0.271227,1.474445,-0.390412,0.378316,0.830135,-2.282823,0.536766,-0.375188,0.551372,1.572975,0.231423,-0.190332,0.285296,-0.096153,0.959386,0.368914,2.441631,2.526844,0.743662,0.457850,1.695397,2.134683,-0.047380,-0.269092,-0.462152,-1.274277,-1.507330,-0.176198,-0.873278,0.248714,1.278609,0.779883,-2.532636,-1.002587,-1.045722,0.982255,0.779864,0.636957,1.694380,0.361133,1.240911,1.554309,0.664551,0.468066,0.810126,0.250855,2.694729,0.557487,1.197445,0.432969,-1.303115,-0.924370,-0.194201,-1.447004,1.065193,-0.969901,-0.767106,0.083569,0.278041,0.636370,-1.046914,-0.909272,-0.318542,0.256180,-1.119128,1.159029,-0.332004,1.450060,0.069922,1.092635,-1.472566,-0.051562,0.564748,-2.209075,-1.123137,0.139310,-3.181107,-1.595684,-1.881656,-2.331503,-1.600253,-0.564989,-0.694491,-0.133686,2.407122,0.783722,-0.636885,-0.202188,-0.333963,-0.406222,-0.445695,-1.629274,0.771592,-0.324321,2.308963,1.563134,-0.692160,-0.347617,0.244051,-0.441564,-1.719050,-0.007033,-1.552547,-0.068310,-0.281385,-3.019453,-2.577172,-1.786313,-3.861056,0.255924,-1.466523,-0.474105,-0.374227,-0.063264,0.294676,1.946410,-1.142252,-0.914493,0.677984,0.970331,-1.708956,1.418432,1.398672,1.884100,0.365176,-0.447591,-1.191433,-2.600115,-0.808858,1.194206,-0.554553,-1.404102,-2.952963,-0.527750,-0.397163,0.978761,-0.660085,-0.332240,0.048464,-0.525267,-1.243758,-0.354113,0.750864,-1.342207,0.588497,-0.640806,2.223559,0.815629,0.239432,-2.895601,0.138445,0.273364,0.718450,0.902552,-1.443278,-0.342164,-0.364904,-2.732238,0.002340,1.266746,-0.685609,-1.336854,0.953925,-1.102221,0.079849,-0.515959,-0.493815,1.100511,-3.041939,-0.239767,-1.476850,0.053976,0.286279,-0.968683,-0.581447,0.199736,-1.829660,1.849345,-1.416985,1.393290,0.802686,0.274882,-0.522557,0.746763,1.002427,-3.600875,-0.655918,-0.310652,-0.198704,-2.193084,-0.691847,-0.109354,-0.610539,2.216821,0.313724,0.255633,-2.214374,-2.394210,-0.917516,0.072596,1.331595,-0.894850,0.590513,-1.687772,0.981501,0.387199,-0.120271,-1.289594,1.462147,-0.149162,0.771439,1.044667,-0.833114,-0.092829,-3.018982,-1.221052,0.145678,-1.740597,0.668398,0.500135,1.287397,-3.182729,1.423106,0.061870,-0.347398,-3.885430,-3.536027,-0.157870,0.439725,-0.561080,0.360057,0.755469,-2.060609,-1.392736,1.273248,0.065248,1.086520,1.404945,1.785010,2.853791,-0.855533,1.072164,-0.570320,0.406381,-3.385227,1.359421,0.304202,0.007688,0.118446,-0.576223,-1.814372,2.353104,-1.918160,-3.364630,-1.876025,-1.056620,-0.390308,-0.930190,-1.256136,-0.608987,1.595637,0.531215,1.707012,0.068717,0.948319,2.400720,2.015341,1.397662,0.097615,0.245696,-1.012782,-3.719345,0.853540,2.562192,3.721801,0.887734,-0.348998,0.744967,1.455510,0.125602,-0.334566,-0.849264,-1.941476,-0.400933,0.018186,-0.628983,-1.528833,-0.438330,0.495690,1.124925,3.646108,0.724606,0.698069,0.348112,2.238295,1.007738,0.808418,-3.188714,-3.018413,-1.583594,-0.485506,0.366255,3.449262,4.839475,0.707073,2.971904,4.008773,2.126377,1.556243,-0.003909,-0.613383,-1.272858,-2.155029,-0.940463,1.687771,-0.895874,1.212803,1.746865,1.488844,-1.009032,0.353125,-1.227342,1.693270,0.428194,1.077442,-2.497083,-4.972822,-2.394429,-0.121227,1.470308,3.920821,0.455912,1.903512,2.091062,2.284704,1.737578,1.206679,-0.429754,-1.334439,-0.040210,-0.654721,-0.484532,-0.976363,0.041793,1.123826,2.080308,1.031067,1.195331,1.052406,1.594441,-0.853002,0.778223,-1.277194,-0.155109,-3.941406,-1.647876,-0.892694,2.340784,4.750479,2.514225,3.239343,3.555931,1.380090,-0.059562,1.315180,-1.411134,0.433450,0.956665,0.062271,-0.561704,-0.798906,2.060986,-1.251162,1.636847,-0.600582,1.510903,-0.940565,0.734770,-2.145823,-1.763498,2.211075,-1.942418,-1.603858,-2.370164,1.853126,4.120885,4.449239,1.806891,-0.053509,3.762148,-0.688623,2.008062,-1.472999,0.206132,0.823756,-1.782697,-0.361731,0.709195,-0.173267,-1.893104,-1.579950,0.262152,-1.308837,-0.549639,2.288119,0.251142,-0.547371,-0.209783,-1.143083,-2.022781,-4.069577,-0.222347,3.065807,2.066651,1.746545,1.246651,-0.404535,0.483532,-0.628526,-1.565275,-3.000266,-1.535958,-0.863330,0.049464,2.501628,-0.422032,-0.121854,-0.667633,-1.148714,-0.410337,-1.122637,-0.436594,1.376450,0.328022,-0.220467,-1.772834,-1.478461,-3.157617,0.437270,3.694900,4.401019,1.958870,1.235705,0.195955,-1.089577,-0.391218,1.014598,-4.520097,-1.584310,-0.122119,-0.980035,-0.015928,-0.660816,0.376290,-0.605938,0.452229,-1.542735,-1.249069,-1.918770,-1.142362,0.672393,-1.105708,-2.728863,-4.128945,-2.862513,0.056273,1.417613,0.177224,0.062191,0.647483,-1.797056,-0.187165,-1.654757,-1.476261,-3.103157,-4.310730,-3.304368,-0.727155,-0.360743,0.747424,-0.803602,0.503769,1.084769,-0.323079,-0.245475,-1.905189,-0.513595,-2.125272,-3.541872,-1.328361,-4.895322,-3.896007,-0.556075,1.194835,1.265901,2.231408,-0.155329,0.180534,0.102095,-0.498923,-2.075575,-1.305941,-3.639808,-0.914663,-3.971463,-1.412168,-1.803162,0.309637,0.558639,0.026321,1.477622,-1.551901,-1.210768,-1.283282,-2.526803,-2.968778,-3.202188,-5.099979,-3.146426,-0.675846,-2.405635,1.329097,2.848420,3.806578,-2.555930,0.638223,-1.956904,-0.319730,0.001412,-2.246579,-2.599535,-2.075262,-1.924006,-1.015206,-2.329371,1.704188,1.560307,0.441092,1.292858,1.272334,-0.198538,-1.525125,-3.476125,-4.126774,-3.663813,-1.533363,-2.781231,-1.405889,-3.200596,-2.959651,-0.051098,2.290257,-0.581169,0.754948,0.132711,0.111382,0.143592,0.087454,-2.501573,-1.561547,-1.290759,0.054631,0.759284,-0.518270,-1.277677,-1.157073,-1.012840,-2.530226,-0.600912,-1.131036,-1.790605,-0.264804,-2.907387,0.638046,-1.199544,-0.716067,-1.313454,-2.537970,-2.511293,0.613221,0.429298,0.872105,-2.524179,-2.037177,-1.868099,0.437728,-0.212933,-0.548491,-0.979353,-0.291417,-0.483444,1.778568,-0.716759,1.075468,-0.358787,-0.875847,-1.231527,-1.418402,-2.340750,-0.648308,-2.108883,0.041459,-1.263874,1.033145,-0.286185,-0.294081,0.761196,-0.169742,-0.727077,0.728735,0.582177,-1.118510,2.535872,0.850542,1.514704,1.160112,0.428214,-0.236321,0.943891,0.807212,1.032805,-0.678281,1.808587,-1.314635,-0.314711,-0.676277,-0.599321,0.715370,-0.403009,-0.378229,-3.656253,-0.945154,-2.139209,-2.899799,-0.594428,-2.151694,0.915975,0.581661,0.816851,0.150330,2.210413,3.100010,-0.047597,0.942021,1.491551,-0.326780,-0.836656,0.161026,-1.227486,0.428442,0.074073,-0.485621,-0.018608,-0.265426,-0.425515,-0.118505,1.100455,-0.889689,0.789218,-1.660627,-2.165892,-0.189412,-1.368605,0.220755,0.227259,-0.882018,0.584784,0.354586,0.630406,1.455882,0.147772,0.817026,0.622169,-1.097276,0.936911,1.286115,-0.961579,-1.091790,0.120021,-0.529180,-1.055303,-2.183706,0.017349,-1.057992,1.730394,0.560559,1.993164,-0.148462,1.012266,-0.427941,1.080225,2.786550,0.237691,-0.087185,-0.520082,-1.018855,-0.553297,0.703790,-0.390315,0.658857,-1.236725,0.805508,1.477451,-0.744079,-0.099926,0.439762,0.010850,0.909340,-1.488878,-0.286761,0.435966,-1.035489,1.259738,0.353999,0.321175,-0.502731,-2.011782,0.418035,0.460842,-0.896470,0.148725,-0.303706,-0.088730,2.101377,0.862158,1.041556,-0.377930,2.141330,-0.869556,-0.794311,-1.722161,0.602852,0.816626
-0.219933,1.677361,0.358093,-0.372586,0.488407,1.846751,-1.151759,-0.173207,-1.475671,0.140856,0.807354,0.187365,0.728764,-0.496880,-1.550876,0.429024,0.856725,0.466449,0.754602,2.306058,-0.952709,0.948756,1.225409,0.011232,1.137961,-0.238514,1.001953,-0.263234,1.656265,1.488226,0.958451,-1.505822,0.181641,-1.511596,-0.305788,-0.632508,-0.432211,-1.053805,-0.451948,-1.746807,-1.541005,0.336890,2.025092,0.370473,-0.070916,1.611338,1.189661,-0.946662,0.351808,-0.871163,-0.416089,0.005929,0.051700,-1.704149,0.356392,0.689131,0.500564,-1.729655,0.563065,1.722971,-0.133253,0.643169,-1.249248,-0.520190,0.120784,1.701702,-0.368856,1.359619,-0.422416,-1.341453,-0.494687,-0.673019,-1.290221,-0.029319,0.273445,-0.993461,0.143615,0.790494,0.699109,-1.495305,-0.410076,-0.245329,-0.656990,0.479290,1.208367,1.253436,-0.696999,0.312738,-0.895376,-0.388979,0.472649,-0.565599,0.734602,0.412037,1.161526,-2.233362,0.055981,-1.465730,-1.068863,0.135778,-1.063267,-1.363265,-0.714323,1.624140,-0.129962,-0.052590,0.323853,-0.127449,0.567788,-1.628776,-1.091651,1.737148,-0.940441,0.018146,1.812187,-0.418695,0.411009,0.109713,-0.963969,-0.964040,-2.392859,-1.087529,-0.433673,-0.855899,-0.815546,-0.840837,-2.774697,-2.680505,-0.439454,-0.997692,2.443570,1.837811,0.491716,1.971531,-0.843981,1.285053,1.844530,-1.758343,-1.268245,0.618893,-0.593204,0.230618,-0.187389,0.165156,-2.572672,1.441183,0.466166,-0.827307,-1.799960,1.638434,0.229781,0.253506,-1.547953,-1.216433,-1.057772,-2.581026,-2.470586,-1.114481,1.880007,0.904927,0.209244,0.882745,0.682054,-1.558267,-0.164182,0.348640,0.248457,0.114432,-0.377895,-0.692644,1.920756,-0.192433,-0.718079,0.463016,-0.512624,-0.177247,0.979832,-0.649354,0.292932,1.548778,-0.856897,0.851812,-1.841733,-2.896492,-1.011098,1.518162,0.508800,1.316314,0.219883,1.069942,1.241789,-0.175612,-0.824994,0.249779,1.773291,0.634357,0.415920,-0.856279,0.484504,1.096946,0.470526,0.546749,-0.626622,1.253244,-1.363127,0.186064,-0.134365,1.633120,0.543732,-0.968067,-1.987196,-1.893478,1.442901,2.980022,1.214796,2.478334,1.402572,-0.282592,-1.032935,-0.496274,-1.366334,-3.288276,0.447002,0.996136,-1.235422,1.055524,-0.985478,0.539653,1.695056,0.534709,-0.461660,1.532912,-0.274866,1.983424,1.552394,0.733112,0.355631,0.123826,-2.379024,0.490529,1.325326,2.228508,1.359481,1.122192,0.477086,0.430908,-0.048112,1.160698,-2.234779,-1.858995,-1.673788,1.135025,-0.139655,-0.994206,-0.102513,-0.887110,1.815734,0.039318,-1.128965,-0.477484,-1.055977,0.111194,-1.775033,0.148989,0.639685,-2.833675,-0.058908,2.034513,3.114326,1.947181,2.512354,2.974974,1.011214,2.365476,1.691479,-0.948199,-0.580814,-1.258583,0.950271,2.116292,-0.461705,0.897536,0.925043,1.425736,0.112057,1.803594,-2.415259,-0.128222,-0.407202,0.652143,0.002197,0.524349,-2.972600,-3.692065,-1.181921,2.850478,6.213400,2.067128,-0.551604,1.155912,0.255226,1.884290,-0.757296,-1.471217,-4.006397,-1.940820,0.911202,0.066459,-0.856254,0.364217,-0.076149,2.118142,1.497050,-0.421054,0.007642,1.930164,-1.174992,-0.470339,0.448048,-1.496654,-1.733014,-2.576891,-1.763401,4.752395,1.960669,1.400989,0.567700,-0.880996,1.493014,1.065510,1.011104,-0.539899,-1.835365,-2.931514,-0.861078,-1.162954,-0.058762,-0.965893,1.609721,1.371218,1.784632,0.774674,2.889690,1.684121,-0.080399,0.342294,0.529755,0.609742,-3.561484,-1.793494,-2.085875,-0.525956,1.326413,1.898686,1.592062,-0.471269,1.420066,1.425883,2.605179,2.229911,-2.399755,1.132196,-2.258381,1.193967,1.397260,0.024578,0.961787,1.746523,3.064699,1.903579,1.274534,-0.561368,-0.746323,0.727668,1.961004,-2.521008,-3.048674,-2.365652,0.024843,0.179020,-0.075291,-0.434995,-1.320085,-2.628128,2.052451,0.965588,0.368353,0.598137,-0.821689,0.667019,-0.223178,-0.832239,-0.136480,-0.034870,-0.595025,0.052406,1.851346,1.508027,-0.228782,0.277078,-0.342126,-2.007083,-0.431190,0.494869,-2.794947,-1.484152,-2.442391,-0.966172,-1.967321,-0.459910,-1.040576,0.541682,1.010471,0.478994,2.145788,2.143096,-1.113931,-1.683296,-0.387618,0.730759,-0.623174,0.729273,-0.643204,2.126245,1.152628,3.380302,-2.123412,0.594872,-1.379019,-1.187328,-0.280675,-1.571514,-3.928664,-2.484107,-1.650054,-0.161357,-2.131164,1.042269,0.337840,0.842651,2.908465,4.043937,3.210420,3.262438,0.287874,-3.461618,-1.519843,0.074546,0.258693,-1.438577,-0.416167,0.120311,-0.941506,1.331113,-0.499790,3.196985,2.688872,2.505596,1.616193,-1.238921,-2.859753,0.608538,-1.456893,1.518198,-2.215667,0.083187,1.022267,2.878961,1.487088,2.750729,0.697733,0.090324,-0.958748,-0.275109,-1.006364,-0.214891,0.998823,-1.373399,-0.737614,-1.724548,0.147777,-0.168216,-0.262094,1.569996,0.839660,1.472382,1.757129,-0.745545,-2.617293,-1.112102,-0.716974,-0.811260,0.185024,1.776076,1.037067,0.434675,1.530840,-1.378938,2.101587,0.483199,-1.397257,0.244239,-0.795718,-1.182787,-2.153774,-0.947390,-0.213465,0.351091,-1.870726,-2.192435,-1.588344,-1.553559,-0.485165,1.716071,0.795767,1.680613,0.351188,-0.770941,-0.769524,-0.488272,-1.262178,-0.376726,1.430748,1.054342,-0.576307,-1.407183,-1.259547,-1.441717,-1.508826,-0.144966,1.180857,-0.576535,-2.145420,0.942768,-2.280822,0.119646,-2.953834,-1.689433,-0.415270,-1.943494,-1.405683,1.106961,-0.832161,1.568787,3.324829,0.401182,-1.436004,-2.626628,-0.746138,-1.586661,-2.400972,0.103108,-2.093853,-1.772503,-1.152994,-2.317193,-1.763878,-1.930535,1.156520,-0.599343,0.694768,-0.976389,-1.193117,-0.023666,-0.240682,-1.273349,-1.993761,-2.046486,-1.712907,-1.816488,1.626775,0.545366,-0.786463,0.160275,-0.703874,-0.588902,-2.957432,-1.378986,-2.363664,-1.926020,-1.640831,-3.043266,-0.018912,-1.688728,-1.498262,-1.087460,-0.525199,-0.462446,2.755120,-0.938737,0.291412,-1.019825,-0.639551,-0.273594,0.414699,-0.829509,0.662133,1.727983,1.033517,0.008123,-0.815277,1.021002,-0.066491,-0.929156,-0.304210,-0.328810,-0.748909,-0.834786,-0.832858,0.381419,-1.312526,-0.389953,0.731338,0.038933,0.354156,-0.168150,-0.874326,-1.190412,-1.172109,-0.632826,-0.855946,1.180965,2.317923,2.154640,-1.502884,-0.338834,-0.852315,-0.111376,1.726443,0.062448,0.364774,-0.347783,-1.049067,-1.730374,-1.858655,-2.043383,-1.736562,-1.117813,-1.705875,0.831130,-0.083260,-0.701162,-1.548436,-1.216901,0.044383,-0.422054,-0.449980,1.317084,-0.522668,0.431354,1.612409,-1.536856,-2.452718,-0.925498,-1.392608,-0.965220,-0.870210,-0.964674,1.893436,-0.777185,-0.795363,2.343493,0.053813,-3.599760,-1.327459,-0.973748,-0.090119,-0.518726,-0.651331,-1.066659,2.197379,-0.504488,1.204365,-1.580262,0.649484,0.555415,-0.055484,-1.084230,0.919739,0.450633,0.051750,1.498584,0.770461,-1.379365,0.167476,-0.487972,-1.335622,0.161115,-1.389126,-1.256899,-2.317345,-0.795981,-0.652383,-0.141180,-1.127748,-0.297659,-0.195199,0.277342,1.859959,0.054447,-0.123099,2.745882,-0.564553,1.171216,2.302340,0.958765,-0.036180,-0.891948,0.478208,-0.504283,-0.989928,-0.976501,-0.272490,0.217542,0.057736,0.781780,0.314823,0.351125,-1.156214,-0.269105,0.381314,0.250282,2.043627,0.477833,1.364631,0.381348,-0.114642,-0.446189,-0.657940,-0.434613,1.340141,1.034745,-0.915067,-0.558951,-0.571749,-0.983306,-0.891433,-0.310984,0.247586,-0.845393,-0.566718,-0.995160,-2.905328,-0.058793,0.171165,1.009020,-0.154952,0.226626,-0.191483,1.100631,0.988501,0.192054,0.991896,-1.299421,0.830288,0.503736,0.906868,0.551801,-2.100333,-0.652519,1.230910,-0.296785,-1.681126,1.848918,-1.133856,0.750669,-0.342432,0.966671,-0.178128,1.152501,0.450014,-1.305445,-0.058331,0.364134,-0.017861,0.303572,-0.618689,-0.643609,0.845046,-0.070168,1.361014,1.372641,0.314186,0.061281
-0.448411,0.322765,-0.225515,-1.339375,-0.958605,-1.595395,0.205783,-0.065237,1.201933,-0.087563,-0.561902,0.748690,-1.077933,-0.170050,0.009650,-0.932788,1.010066,-0.216329,-1.565056,-0.710918,0.398074,-1.936369,-0.876548,-0.239673,-0.321037,-1.146817,0.298207,1.308584,2.292550,-0.208057,0.481822,-1.623254,-0.582519,-1.744164,0.000879,1.314529,-1.776861,-1.178652,-0.366882,-2.230839,-0.982823,-0.350055,0.509675,-0.016768,1.007872,2.310896,0.654679,-1.330908,-0.527226,-0.050562,-0.958057,-0.964446,-0.409296,1.485257,-1.098247,-0.312391,1.847943,-1.374033,0.263672,0.814991,0.312709,0.490696,-0.744394,1.065108,0.470865,-2.572606,-1.127685,-1.632091,0.102663,-1.211208,0.913294,-0.019355,-0.638008,0.600734,-2.702795,-1.114601,-1.013004,-0.520561,-1.420826,0.853731,0.228055,-0.110901,1.702531,-0.284895,0.930666,-1.229110,1.205885,0.898849,0.485224,1.605657,-0.401673,-0.223208,-0.737849,0.602926,-1.975674,-3.240726,-2.466039,-3.594771,-4.522455,-2.402158,-0.927874,-1.782704,-1.254443,0.404792,-1.781357,-1.022288,-1.249446,-1.763954,2.404200,0.336439,-0.912829,0.048581,-0.960085,-0.621780,0.598514,0.505860,-0.984363,0.063951,-2.630049,-0.484198,0.672909,-0.776943,0.315018,-0.684923,-0.186459,-0.998413,0.330222,1.266977,-0.315879,-2.344386,1.292165,-1.327646,-1.780196,-0.069083,1.410760,0.006940,-0.893854,1.192047,-0.192814,-0.570038,-0.316254,1.875352,-0.280997,1.799197,-0.763235,-0.871175,-0.452808,1.026672,0.213534,0.553109,0.659512,1.203497,0.156492,2.337828,1.969527,1.291253,0.299155,1.560626,1.262324,0.671146,0.567286,0.566630,0.047371,0.242304,0.959850,0.079742,0.181609,0.541348,-0.635156,1.820705,1.007987,-0.691029,-0.873474,-1.106217,-0.902607,-0.127236,1.104750,-0.420221,0.372232,1.751403,0.138626,1.284339,1.454202,2.064133,2.504157,1.141157,1.237874,-0.176995,1.198759,2.977844,1.886469,1.783499,2.569558,-1.013010,-1.435592,-0.269503,-1.049200,0.233844,1.298419,-1.009414,-1.147866,-0.738188,-0.038780,1.550231,-1.377520,1.830213,0.995076,0.655286,2.304051,-0.370734,0.577523,2.120186,3.133397,0.072434,1.501270,2.900785,2.507864,3.279533,3.249845,1.741406,0.787580,0.662123,0.896746,0.347171,1.055804,-0.436728,-0.703372,-0.151909,-0.281889,-0.004246,-0.104356,-1.636613,-0.142238,-2.611123,-0.637860,0.695933,1.992601,1.089896,1.218031,1.055967,-2.494096,-0.769069,3.923525,5.757541,3.381656,4.632202,4.279363,3.437463,1.229505,1.105331,1.340465,0.298627,0.609674,0.020451,-0.258898,1.505656,-1.435009,-1.371897,-1.780091,-0.698584,-1.434906,-0.114656,0.264198,-0.182711,-0.818463,-1.690866,-1.730662,-1.544279,1.250311,1.744065,6.451775,4.601403,0.913518,0.813129,1.260599,2.765903,3.668859,1.787155,0.603015,0.886913,0.434625,-0.078969,-1.426901,-1.901593,-0.813052,-1.218632,-0.836172,1.599332,0.739638,1.702569,0.437451,2.240593,-0.948498,-0.931152,-1.824848,1.088895,3.024367,2.218070,0.621039,2.395371,0.884530,2.618186,1.398539,0.887858,2.841723,1.891922,-0.102474,0.888834,0.554365,-1.390038,0.186301,-1.858347,1.284189,-0.487204,2.595002,0.095527,-0.567080,0.816865,-1.004305,-3.290374,-2.441214,-0.966182,-2.365120,2.805353,2.555548,0.493979,-1.032637,1.436403,-0.277543,1.248616,2.822017,0.067804,-0.610285,2.326372,2.012162,0.233355,-0.325472,1.615376,0.008391,-1.811886,0.143790,-1.007576,1.072354,-1.118715,-1.469724,-1.528213,-1.003834,-2.275237,1.444998,-1.491135,-0.925349,1.791179,1.912545,-1.144336,-2.092844,0.631805,-0.519232,1.004788,0.585892,-2.496654,-1.817916,-0.868538,0.080367,-0.138893,-0.485026,-0.469616,-0.330512,-1.016196,-1.987283,-0.826399,-3.374909,-0.942407,-0.678135,0.289856,0.494082,-0.003544,-1.717400,-2.498800,2.065888,1.154217,-1.919260,-0.200130,0.957075,-2.161595,-0.377400,-0.111780,-1.603505,-2.548443,-2.430587,1.311490,0.939532,0.055047,0.408476,2.580084,-1.236305,0.065121,0.314925,-0.840657,-1.229513,0.217718,0.266985,-0.884987,-1.296512,-0.293248,-1.821927,-0.266810,3.004567,0.969727,0.701091,2.430576,1.200779,1.003758,1.031135,-0.243920,0.421064,-3.013484,-0.949949,1.936255,0.524643,-1.124093,0.344188,0.286354,0.792320,-0.271758,0.328253,1.807577,-0.594437,-0.050340,1.647747,-0.081146,0.657778,-1.289898,0.633217,0.724534,0.817325,-0.729026,-0.226544,-0.240829,1.007679,-2.132554,-1.548468,-0.748285,-1.331450,0.723327,0.839458,-0.166087,1.781184,1.590367,-2.871618,0.940389,-0.108348,0.054443,2.097286,1.906015,-1.701798,0.278342,-1.522226,-0.325605,-1.925720,-1.122362,1.556110,0.108761,0.368177,0.650324,0.985639,1.919144,0.064722,-1.100815,-1.070363,-2.169500,-0.153845,-0.805536,-0.004870,0.657354,0.567614,-1.375598,0.611598,-0.999456,0.522922,0.003776,1.084364,-0.185108,-1.094497,0.083126,-0.328390,0.089633,-0.546935,-1.857121,0.055811,0.033909,0.740731,-0.465130,0.348704,-0.252879,-0.105180,-0.965134,-1.571777,-1.028530,-2.219142,0.948765,0.302659,0.481329,1.862482,0.023216,-0.630019,1.534971,0.097756,0.278505,0.218785,0.257773,1.037730,1.208565,-1.829210,-1.141839,-0.435037,-0.577208,-1.602056,1.182079,0.796902,0.608294,0.451352,-0.660538,-0.935703,-0.239853,-1.360137,-0.493217,-3.140210,-0.774692,1.662863,0.144724,1.235721,0.837157,0.947740,0.975676,-0.377305,0.191371,0.217788,2.296874,1.554038,-1.229017,-1.314810,-2.081068,-1.996811,-1.681434,-2.976081,-0.114510,1.686650,1.612626,-1.709986,-0.203179,-1.635372,-1.656330,-0.993658,0.437129,-0.973671,1.559223,0.393285,-0.060010,-0.221187,-1.307073,-0.194678,-0.289106,-0.792433,-0.053422,1.779579,1.857703,2.146249,1.524269,1.724182,0.621268,-1.486832,-0.262788,0.172126,-0.554867,-1.583160,-1.112428,0.649317,1.138591,-0.039487,1.564103,0.686129,-0.329401,1.918428,1.013090,-0.864239,-0.764802,-0.019168,0.162150,0.182850,0.777967,0.739840,-1.067709,1.303064,2.415398,1.854474,0.963704,-0.858414,1.010473,0.296122,0.660069,-2.384212,-0.709930,-1.404070,-0.780657,0.245157,1.362767,1.715743,1.606687,0.626639,0.703347,1.058644,0.456234,0.836163,-1.087401,-2.302909,1.465773,1.935913,-0.276471,-1.588495,-0.773485,0.721591,0.440458,-0.105987,0.448486,0.459625,1.446730,-1.477295,1.281904,-0.581370,-0.710261,3.001716,0.611699,0.911036,0.958534,1.225101,1.754194,-0.123079,0.740313,-0.376747,-0.090647,-1.282878,-0.980338,1.318575,-0.131116,-1.746537,1.694874,0.922960,0.608919,-0.461325,-0.298215,-0.501574,-0.743989,1.805179,-0.011930,0.502809,0.155304,-1.201556,1.110477,0.117542,0.201066,1.493386,-0.187817,-0.283475,-0.992513,1.582630,1.622004,2.762144,0.988358,0.209863,-1.586480,1.157992,-0.389804,0.449493,0.203048,-0.235483,0.642549,-0.478054,-1.236216,-0.689539,-0.402904,-0.235806,0.527026,-2.059531,-0.538254,-0.157414,-2.376306,-2.321963,-1.904601,-1.040930,-0.977343,-0.412419,0.031759,-0.270112,-0.342477,-0.330485,-0.260251,1.184254,-0.572590,1.571862,0.063171,0.304881,-2.420579,1.292479,0.140325,-1.518878,-0.762263,-1.218212,-0.701887,-0.060034,-0.294402,0.638063,-1.084703,0.104665,-0.819155,-0.368864,-0.739153,-2.373976,-1.339056,0.650523,-1.130154,0.965880,0.586933,1.712705,-0.563608,1.202078,-2.005657,1.433655,1.142733,0.846132,1.482291,0.076177,0.111983,-1.112798,1.278182,0.261406,-0.640497,-0.026720,-1.330202,-0.380126,1.198910,0.025634,-0.032172,0.194799,-0.614511,0.149018,1.592700,-0.266651,-0.248389,-1.125681,0.089838,-0.241360,0.087311,-0.384687,1.154474,-0.331355,0.634567,-0.754794,-0.794113,0.635574,-1.557171,0.231337,-0.623301,0.073584,-2.055716,-0.055515,0.874945,0.858946,0.067081,-0.413904,0.774733,0.812331,1.390651,-0.443341,0.523126,-0.368376,1.507192,-0.514360,-0.025952,0.671655,2.632029,1.867264,-0.607381,-1.031794,1.578526
-0.200466,0.427230,-1.452647,0.701317,-1.953737,0.144557,0.437529,-1.518061,-1.293843,-0.399176,-0.590574,1.423926,0.317531,0.764922,-0.037892,-1.479594,2.361974,-1.138012,-1.034832,-0.332818,0.967538,1.039912,1.589725,0.917824,-0.093959,-0.012991,2.162476,0.432851,0.910351,1.050413,-0.687290,-0.337681,0.408736,0.383254,0.970113,1.335673,0.578462,-1.403166,-1.530478,-0.502311,-0.356657,0.367371,0.022862,-0.714945,1.201665,-0.288363,0.455492,-0.615225,2.068658,-0.371641,-1.294323,-0.564238,-0.487135,0.896104,-1.819259,1.190059,-0.223883,2.187856,-0.197823,-0.253167,-0.046422,1.761577,-0.010760,-0.870094,0.310263,-1.487012,0.811177,-0.561693,-0.747887,-0.859535,0.243752,0.046121,1.679590,-0.761497,-0.973895,0.392633,-0.459100,-0.618730,-2.044805,-1.525087,-2.288499,-0.651440,-0.204122,-0.525545,-0.721438,1.310244,-0.640523,-3.102500,-0.934573,0.717429,0.680321,-1.650644,-1.354555,-0.209371,-0.398195,-0.588589,-0.953082,0.483743,0.844263,-2.226654,-1.958572,-0.601221,-0.066149,0.240371,-0.873355,0.890566,1.210573,-0.322352,1.331530,1.540557,-1.267472,-0.118387,-1.508372,-0.305011,0.865974,2.235916,0.503437,-0.794281,-0.357801,1.641596,-0.799612,1.118666,-1.710503,-2.532536,-0.951429,0.577482,-2.334107,-0.583505,-0.979783,0.327361,0.453401,0.869607,0.852956,0.168878,1.597792,0.355031,0.991903,-1.035815,-1.582740,0.726109,0.256665,2.525234,0.368207,-2.383379,-0.315050,-0.000554,0.451191,-1.268483,-2.494508,-1.958370,-2.537665,-0.363016,-1.632128,-0.188589,-1.377660,-1.252364,-3.485675,-1.320271,-1.210977,-0.629103,0.340242,0.014128,0.208686,1.848558,-1.029027,0.453455,-2.773191,1.978053,0.733179,-1.684995,0.316130,-0.866011,-0.404550,0.394234,-1.009229,-0.474597,-0.727000,-1.360315,-0.389417,-2.472371,0.045660,0.914244,-0.079045,-3.143708,-0.791393,-1.444398,-1.923182,1.736656,0.908765,1.984573,1.547237,-0.308452,1.705653,-0.200767,1.153663,-1.101031,0.143237,0.463474,-0.468060,-0.194991,0.055583,0.845299,-0.507826,2.330459,1.022574,0.017802,1.295149,1.242197,2.478375,0.629629,-1.779601,-2.490835,-1.317431,-0.871366,2.153921,0.156688,-1.403179,0.002930,-0.497455,2.652445,1.273624,1.235701,0.599323,1.147315,-1.151260,0.718320,0.922939,1.635264,1.053550,-0.276285,-0.981756,1.382467,-0.413441,-1.564049,0.259433,1.282886,1.587946,1.118429,-0.379620,-1.074102,-1.342955,0.256552,3.806026,2.936335,3.084045,1.026088,0.796214,4.099984,1.525195,0.424001,-0.114281,1.579822,-0.285066,-1.151909,-0.863872,0.423143,0.845429,2.075105,0.301551,1.154731,0.087998,1.862206,0.230259,1.500933,2.086218,1.525374,0.010579,-0.445574,-0.943951,3.267057,1.389778,1.769641,0.973795,1.047189,1.328485,0.620522,2.474723,-0.459449,0.401954,0.584346,-0.327648,-2.074009,0.545526,1.099914,1.684063,0.430212,1.029054,1.536611,3.464151,2.319936,3.134467,2.663550,3.171616,4.186542,1.978059,-0.484621,3.709327,2.152627,1.809517,1.700648,3.048936,1.793119,-0.396416,-0.292541,0.797669,1.659697,1.540770,-1.312030,2.458581,-0.009393,-0.743738,-0.531108,1.899705,-0.371930,2.231762,-0.880411,0.699912,1.187101,2.369754,2.679506,2.535016,1.047493,-2.748088,-1.655657,-2.414389,1.129255,0.371996,-1.794170,1.588323,0.876711,1.318968,-1.811186,-0.449213,1.747785,-0.231375,-0.605861,0.777941,0.159084,0.278938,1.102835,-0.434465,0.223963,-0.633599,-0.950852,1.004191,-0.655984,1.347970,1.458866,-1.089674,-4.073208,-7.385176,-3.370052,0.513587,-0.292240,1.030736,-3.297257,-2.217152,-0.634562,-2.148519,-1.216303,-0.812067,-2.021978,-0.822795,0.347319,1.350944,-1.283551,0.289044,0.139494,-1.103881,2.698258,0.854428,3.341131,1.889662,0.220530,-0.464376,1.377519,-0.970678,-4.203878,-4.079965,-4.463183,-2.251529,1.178797,-1.807969,-3.090155,-3.832783,-0.633133,-0.147946,1.258605,2.428840,-0.743545,0.677112,-1.038291,-0.725251,0.154879,-0.247365,0.301047,-1.801713,-0.413809,-1.650767,1.709772,-0.784006,0.474887,0.328046,-0.243337,-3.321918,-5.379474,-2.812346,-1.852406,-0.801402,-2.203017,0.468324,-0.946449,-1.344413,-2.727635,-0.799839,0.269123,1.343257,-0.281746,-0.284433,-0.166475,-1.593064,-1.124137,1.362172,-0.383700,0.466109,0.644588,-0.282787,1.679358,-0.297937,0.472770,0.699532,-1.867264,-4.277343,-3.787153,-3.524076,-3.047914,-2.077650,-1.526211,-1.688113,-2.471785,-0.695254,-0.028257,2.123222,1.671788,1.647298,0.020907,-1.275374,-0.412125,1.103546,-0.263063,1.759994,-0.099897,0.431433,0.470890,-0.602906,0.754751,0.668424,-0.897338,-2.072462,-4.611367,-4.176205,-2.407543,-1.089235,-1.036527,-3.042805,-0.689185,-1.396450,-0.078497,0.623356,1.493806,1.474704,-1.694830,-0.839667,-0.709872,-0.267954,-0.620997,-0.068556,0.117482,-0.631857,0.480823,1.588478,-0.309114,0.713515,-1.094083,0.243451,-1.301063,-3.282941,-3.883149,-2.781758,-2.697955,1.499495,-0.814208,-0.768689,0.797858,2.146063,-1.894372,-0.868071,0.721371,2.901378,0.946366,0.932306,-2.376904,0.114932,-0.323826,0.893588,-1.889019,0.898999,0.164293,0.204487,1.445104,-1.071777,-0.343406,-2.654358,-1.438493,-2.908644,-2.585917,-1.662365,-0.210022,-2.074392,-2.147151,0.495174,-1.076577,0.485616,0.265505,0.379315,1.843068,1.502919,-0.529269,-0.151051,0.144318,-1.364886,0.372154,0.893721,0.251471,0.001639,-0.770240,-1.003298,3.156629,0.640034,0.553359,-0.549520,1.527251,-1.923286,-1.765245,-2.340463,0.238733,-0.486883,-1.306318,0.837484,-0.572105,0.198617,-1.263133,-1.096739,-1.295898,2.083641,-1.425393,0.328422,-1.516201,0.758846,0.696498,-0.306157,0.162128,0.459009,0.201628,0.675104,0.173325,0.927851,0.548871,1.319524,0.571358,-1.905206,-1.125493,2.261687,0.430242,1.374984,-0.127094,-2.025824,-2.276557,0.980134,0.492998,-3.354590,1.187712,0.688976,1.514762,-0.231359,0.579509,0.137446,2.263955,0.236992,-0.769744,0.970225,0.769844,-1.079899,-0.027309,0.570568,0.195652,-0.850996,-1.136441,1.113276,0.713479,-0.282057,-0.934950,-0.563257,-1.411746,-0.217968,-0.907251,0.020093,-0.507391,-0.308704,1.137622,0.759822,-0.366868,1.690290,-0.384151,1.169454,-0.254599,-0.142062,1.108818,-0.665404,-0.254185,-0.405971,-0.450609,1.486591,-0.602356,0.876822,1.296142,2.754668,-1.088938,0.835628,0.478070,0.773685,0.669955,-1.069305,-0.269151,-0.413792,0.443552,-2.409682,0.064203,0.571303,-0.498002,-0.986714,-0.973507,-2.798777,1.359624,-1.010968,-0.020162,-0.774796,0.430679,-0.568981,-0.441604,1.961529,1.656819,0.311165,2.157212,3.070755,1.008056,-0.953367,0.288135,0.663026,-0.052053,-0.178639,-0.395582,1.116204,1.467582,0.520639,-0.527648,0.168156,-0.241944,0.815279,0.231411,1.035856,-1.662699,0.172207,-0.865500,0.807603,-1.003605,3.082000,2.345049,1.621734,0.266810,-1.213732,0.106171,-1.207000,1.080018,-0.454777,-1.971920,-1.182304,-1.326638,-0.454588,-2.895351,1.662808,0.249563,0.186033,-1.212150,0.477754,0.840864,-0.323970,0.201963,-1.230218,0.534589,-0.148163,-1.910354,1.613063,-1.565352,-1.764092,-0.914526,2.694612,1.453178,-0.301918,0.235145,0.340814,-0.023467,1.930618,2.915576,0.681989,2.199052,2.614503,-0.004112,0.262970,0.368952,-1.048726,-0.635776,0.913691,0.387280,1.414477,-0.591348,-0.020580,0.754061,0.822858,0.526142,-0.657373,-0.510292,1.297567,-0.926083,0.371764,-2.276386,-1.179762,-1.759060,-2.423946,-1.060324,-1.451070,-1.184178,0.011669,-1.425843,0.504449,-0.273865,-1.559281,0.155088,0.734226,0.397047,0.612131,-0.571683,1.438024,-0.180699,-0.411829,-0.895360,0.461975,1.109337,-1.523272,-0.582013,1.083640,0.017709,2.195647,-2.277914,0.752545,-0.743507,-0.503402,1.438707,-0.245599,1.216998,0.647365,-1.235285,-0.222486,0.812574,2.362387,0.765227,0.436343,2.285086,-1.500144,0.731653,-1.699533,0.227199,0.208805,-1.016277
0.424169,-1.076802,0.644738,0.419823,-0.759959,0.144725,0.087280,0.605552,1.454124,0.023831,-1.555193,0.409006,-1.023281,-2.345694,-0.683532,0.511827,-0.835710,0.182059,1.840982,1.402651,1.667112,-0.110678,0.000177,-0.058809,-0.002679,0.527787,0.547426,-1.011721,-2.034241,0.130736,0.397208,0.523498,-2.263540,0.504430,-0.747814,1.165689,-0.247765,-0.816323,-1.209471,0.197326,0.589286,0.554490,-1.318266,-0.155327,-0.690598,2.354391,-0.037289,0.208212,0.197469,-0.100777,-0.709681,0.973813,-1.084747,1.662963,0.521525,-1.437824,2.183651,-1.618826,0.977187,-1.640099,-0.702538,1.065877,1.203861,-2.801503,-1.340887,-1.438613,1.068032,0.898475,-0.876849,1.138919,-0.804595,-1.168746,-0.061521,0.304065,-0.609874,-0.263096,-0.325128,2.165016,0.318529,-0.305439,-1.290736,-0.059981,0.274380,0.759695,1.629278,1.321307,1.806172,-0.051575,-0.133972,1.079292,-0.344129,-2.660325,0.933464,-0.419430,1.056853,2.540219,2.616361,1.872263,1.503477,1.658653,-0.340871,3.965730,1.272777,-0.456696,-2.555007,-1.110813,-0.847179,-1.328577,0.448539,-1.241310,1.023084,0.321073,-1.192583,0.372209,-0.214248,0.728431,2.696538,-0.765069,0.003888,-0.599868,0.240448,1.215834,2.001353,2.383389,1.642394,1.282715,1.718702,2.985028,2.416298,2.388573,-0.500067,0.064853,-1.589280,-2.832281,0.085344,-3.597377,0.667353,0.859803,-0.950649,-0.054479,-0.112715,0.105317,0.912912,0.097737,-0.279677,0.888698,0.458155,2.309658,1.732839,1.895673,3.278909,4.130134,0.340283,1.665192,2.039028,2.555828,2.975317,3.636371,4.068137,2.334831,1.290560,-0.516960,-1.185307,-1.305125,-1.513988,-0.622158,0.451812,-0.326294,0.259101,-1.125571,-1.706104,0.320856,-0.470044,0.101490,-1.783132,1.424293,0.845769,1.339170,2.615581,2.521284,1.922068,2.465221,-0.159109,0.163303,0.149096,0.951846,-1.098635,0.935713,1.092068,1.986466,-0.730501,-2.219896,-0.349814,-0.358697,0.178799,0.961873,-1.505165,-1.106930,0.148153,0.222463,-0.665230,1.740093,0.829288,0.877026,0.744169,2.119138,1.733243,2.289200,-2.193890,-0.272452,-1.202595,1.516314,0.907438,-1.584311,-0.914074,1.540701,-0.511695,-0.702103,-0.268121,-0.919962,2.130175,-2.022734,0.075942,0.660046,-1.807302,-0.292156,1.420379,-0.754944,-0.403541,0.024726,-0.799371,1.110363,3.751455,3.539528,2.258758,1.536756,0.419549,-0.397875,0.955317,-0.636437,-0.629010,-0.936224,-0.460355,-0.655351,-0.133598,-1.071197,-1.280681,0.511878,-0.948332,-0.746747,0.749507,-0.899398,0.225879,2.065773,-1.185523,-0.507982,1.281798,-0.965441,1.846778,0.711710,1.009468,1.880935,0.815466,2.087822,1.030636,-0.166978,-2.834498,-0.789807,-1.006973,0.387335,0.410997,-1.208704,-0.113173,-1.615680,0.803024,1.835315,-1.726293,-0.471884,-1.761874,0.443831,1.757755,0.758388,-0.014194,0.453939,0.977314,-2.015654,3.110865,1.313746,1.522319,3.217708,-0.945166,-0.924171,1.157992,-1.216617,-2.735696,-3.175890,-2.109845,-0.567511,1.245284,0.052699,0.436212,-0.577705,1.692000,-0.140185,-4.423198,-2.085955,-1.760437,0.044455,-1.155366,0.996907,1.545785,-1.072355,0.958075,0.694565,1.074624,0.006879,-0.205169,0.073257,2.025776,-0.616743,-0.902949,0.287321,-3.000045,-2.180604,-2.030969,0.969069,0.046848,1.725822,2.847518,0.531551,0.042089,-0.326090,-1.995988,-2.094571,1.288618,-0.585867,0.947351,0.996218,-0.086308,0.930584,0.283762,0.856942,1.235107,0.181203,1.873086,-0.637285,-1.032057,-0.923063,-0.994497,-3.427178,-1.139610,-1.213270,0.340353,0.502356,1.808273,3.219181,3.672431,1.945491,2.969412,1.329749,1.832351,-0.053968,-0.549098,0.267126,0.452883,2.920869,-1.096515,-0.683781,0.321812,0.599510,1.371973,-0.643807,0.116923,0.218051,-0.987860,-0.186047,-1.853952,0.325349,-2.623428,2.159662,-0.199860,0.313731,0.963975,4.010239,4.697659,1.716592,2.600712,2.950715,1.429403,1.891074,0.556694,-0.693499,-0.272638,1.200770,0.286279,0.558435,-0.048316,-1.014877,0.844971,-1.015994,0.368937,0.212588,-0.457228,0.068192,-0.336385,0.372487,0.365738,-1.247398,-1.456367,-0.028284,1.080364,2.745225,0.903047,2.734507,0.539870,0.098200,-0.548686,0.981473,-1.884087,1.524306,-0.130703,-1.509800,0.258769,-0.238890,-0.130405,-2.071906,1.125634,2.875512,-0.292490,0.349224,-0.681270,-0.110671,-0.742216,-0.393174,-0.103327,1.040615,-2.492581,0.480296,1.292941,2.729503,1.469594,0.481821,2.156178,1.408123,0.763329,0.201204,0.184621,2.091550,0.827110,-1.497161,-0.516427,-0.794495,1.336968,-0.774858,1.013424,0.940532,2.958196,-0.396464,3.517314,0.310827,0.983423,0.405842,-0.014198,1.975137,-1.003662,-0.323753,2.637404,2.732407,1.598665,0.783987,0.646607,-0.214556,-0.144674,-0.414065,-0.250918,0.049110,-0.393407,-1.768598,1.148778,0.832830,-1.451585,-1.579995,0.293709,0.979046,2.938070,-1.120886,0.956727,1.150178,0.064754,-1.912116,0.781365,1.878129,0.830136,1.003903,0.307960,1.413576,0.258953,-0.669643,0.049882,2.607171,0.468479,0.883526,-0.472357,1.247929,1.331701,0.047059,0.130922,0.158827,-0.324990,-1.590624,0.071890,1.441339,2.770765,0.172375,-0.520664,0.244177,-2.849030,-1.394937,-0.593355,0.518263,0.233761,0.527745,-0.609363,0.868187,0.574074,-0.115499,1.121249,-1.139202,0.770243,-0.152203,-1.721286,-1.474896,-0.049476,-0.684774,-0.536038,0.875113,0.466172,-0.103356,4.277240,0.719177,-1.802401,0.023697,-0.376665,-0.359872,-2.842060,-3.174029,-1.023988,-0.039376,0.373652,-0.324447,-0.778921,-1.070997,1.498660,-0.481515,1.667390,1.277612,1.411392,1.346629,0.537555,0.073512,-1.942284,-0.630768,-0.302528,1.857726,0.609704,3.471401,0.097205,-0.650109,0.051222,-0.207087,0.157716,0.502687,-0.858457,0.451232,-1.909983,0.182122,-2.270789,1.317089,-0.418522,0.810231,0.827906,0.504750,1.428108,-0.352655,0.650411,0.639258,-1.430151,0.409043,1.740542,-0.176914,1.968036,0.516496,0.929379,2.060093,-0.155954,0.147909,-1.248250,0.518972,-0.332518,-0.174402,0.677698,0.444711,-1.687439,-0.655375,1.202250,3.476792,0.242245,0.647876,-0.896406,2.601954,-0.080536,-0.451066,0.522656,-0.465995,0.899586,0.924789,0.900809,1.976316,2.992588,0.739846,-0.232707,-1.532566,-1.643707,0.532238,-0.668235,-0.220099,0.136085,3.628176,2.149504,-0.170946,1.014904,0.833972,-0.010408,0.287151,-0.424172,1.677171,0.161960,-0.567604,0.319443,1.268565,0.507169,0.949964,-1.670804,-0.490781,-0.349626,1.260340,-0.137119,0.010415,1.138212,-2.097973,0.930796,-1.358603,0.621877,1.329424,1.113525,0.562667,-1.397670,0.094451,1.778926,0.509532,1.049976,1.895577,0.400506,0.117820,-0.334446,-0.492794,-0.174233,-1.682750,-0.714474,-0.565288,-0.980701,0.436659,0.754289,0.718408,-2.579073,2.134007,-1.275380,-0.900751,1.047838,0.287932,-0.538097,-0.154199,0.858118,3.514310,1.537459,1.711110,3.195140,-0.328188,0.940639,0.357260,1.438944,0.736700,-1.217618,-1.342756,1.855459,-0.068331,0.462526,-0.839005,0.041255,-0.418229,-0.861246,0.515108,-0.669013,-1.774018,0.325285,0.053122,0.262221,0.022212,-0.599982,1.951567,-2.110021,-2.182174,0.096356,1.202103,1.235758,-1.126110,-1.111068,-1.735251,0.569659,-0.324218,-0.216373,-0.210781,0.789045,0.978620,0.598609,0.365189,0.206780,1.432849,0.765540,-1.320891,-1.846691,0.395169,-2.790471,0.707756,-0.683246,-0.356239,-0.781561,-1.206483,-0.654502,-1.025482,-1.402097,-1.377767,-1.418380,-1.913906,-0.689263,-0.122123,-0.691514,-0.876972,-1.596553,-0.796724,1.036791,0.388715,0.552247,0.912411,-0.685476,-1.194894,1.516771,-0.586372,1.414208,1.495096,0.076304,0.092205,-0.484703,0.698626,-0.357073,-1.200302,0.290271,-2.295161,0.593865,0.669536,-0.588649,0.005215,0.211421,-1.502408,-0.359172,1.178202,-1.098031,-1.093383,-1.973011,0.625701,-0.162841,0.914550,-0.449438,-0.415044
0.299812,-0.048791,0.023190,-0.856743,0.608412,1.417020,1.314222,-1.247740,0.552113,-0.055216,-1.023651,-0.158833,-0.551209,-0.883785,0.400366,-0.918512,0.184666,0.865964,-0.670000,0.666459,0.412972,-0.039302,-0.919875,0.695249,0.236927,-1.265142,-1.870472,-0.736165,1.898139,-0.950527,-1.813810,-0.217876,0.367390,-1.054350,-2.402784,-0.902480,-0.717593,-0.615813,-1.598728,0.525706,0.429046,-0.065299,-1.203470,0.517709,-0.501075,-1.010532,0.282536,-0.155989,0.971879,0.004617,2.297140,-0.814302,1.237866,-1.404912,-0.947823,0.025867,1.723869,-0.850857,-0.252363,0.145847,-1.726554,-0.276702,1.624127,-1.643816,0.711764,1.470341,-0.261038,-1.389904,-0.067944,-1.170663,-1.877211,-0.900745,-0.646068,-0.688441,-0.496356,1.361420,0.031874,-1.168678,-0.470639,0.385007,-0.990382,-0.212303,-1.273126,0.906449,-0.715519,0.789589,0.643925,0.676072,-1.123827,-1.191649,-0.242795,-1.958293,-0.846655,-1.374640,0.842326,-0.405532,-0.784259,-1.052694,-2.323185,-0.272448,-2.892617,-0.335608,-0.881723,-0.365436,1.968966,-2.165098,0.883665,2.212148,-0.847953,-0.807015,0.548406,-0.486340,-0.746414,-0.485274,0.099147,0.040615,-0.922728,-0.907061,-0.356256,-0.315149,1.337925,0.082340,0.845450,0.040889,0.015739,0.323117,-1.719886,-2.082037,-2.861623,-1.502353,-2.626122,-2.567631,1.120894,-0.876556,1.154262,-0.454017,-0.847028,1.656180,0.067694,-0.791576,-0.232663,1.312306,0.743947,-0.209446,2.253460,0.400802,1.397881,2.445769,-2.360017,-0.083336,0.893958,0.436027,0.932935,-0.158496,-0.614201,-0.695875,-2.373639,-2.677172,-0.907419,-2.508611,-0.474402,-1.515787,-0.405591,1.506889,-0.894970,-0.069223,-0.368746,0.162091,-0.492537,-1.332943,0.598312,-1.656137,-1.226864,-0.783514,1.010382,1.681243,0.589642,0.818944,0.206042,-0.020805,1.495415,0.829699,-0.869548,-1.615087,-1.122681,-2.123531,-3.612361,-2.337274,-0.960835,0.397912,-2.362863,-0.509230,1.585163,-0.097556,0.727902,0.050181,0.040776,-0.044122,-1.885762,0.104923,1.414722,-0.163132,-0.435945,1.646850,-0.166415,0.654993,-0.624071,0.457950,-0.751060,-0.896894,0.312470,0.908946,-2.751213,-1.041601,-3.581077,-4.311744,-2.828654,0.912700,-1.121548,0.812476,-0.095754,0.660265,-1.037927,1.372615,-1.592737,0.807101,0.400122,-0.287961,0.884743,0.858048,0.341299,-0.180122,-0.895802,0.236708,-1.030454,0.476533,1.548918,2.168779,1.831637,-1.182604,-0.097628,-1.888794,-1.148218,-2.583826,-0.537712,-2.923903,-1.556873,-1.081525,0.755397,0.897943,-2.361165,0.639804,0.858899,0.316404,0.948251,0.948629,1.045701,-2.092524,-1.587769,-2.154845,0.580495,-1.320632,1.337729,-0.146497,2.211497,4.477460,4.447346,1.764616,-1.143971,-1.240342,-5.127065,-0.869539,-0.778032,-1.993600,-1.359579,-0.181703,-1.541982,-0.790107,0.439974,0.892583,-0.330645,-0.595319,-0.882006,-2.564404,-0.631363,-0.614487,-1.101847,-0.276554,-0.013113,-0.449270,2.450149,0.988435,0.242876,3.277170,3.356865,2.963847,-0.722126,-0.704942,-0.617094,-1.878403,-2.137211,-1.418030,-1.652260,-0.739337,-1.462505,-0.387918,0.512367,0.044677,-2.900478,-0.376568,-0.555170,-1.511435,0.345485,-0.077888,1.738494,-2.058888,-0.111347,-0.786619,1.172036,0.829041,2.310676,0.988020,2.746728,0.592271,-2.100119,-1.082804,-2.372362,-2.415442,-1.551086,-1.974665,-0.530737,0.717669,-0.344403,-0.449349,-1.451854,-0.596539,-0.559044,1.075703,-0.928992,-1.442944,1.222148,-0.275448,-1.074319,0.002489,-1.486074,-1.176058,-1.670421,0.342700,1.429611,1.667283,0.114311,1.425563,-0.915246,0.990258,-0.893392,-1.784169,-0.358958,-1.732518,-1.193691,-0.408248,0.900342,0.634542,0.626009,-0.006755,1.240929,-1.356399,-1.392125,-0.763855,0.043107,-0.036532,-1.097267,-1.081780,0.166362,0.382183,-0.195502,0.709468,2.452003,0.998617,2.210350,-0.927207,-0.382153,0.338435,-0.033184,-1.282515,-1.744667,-0.578037,0.125255,1.553805,0.773386,2.520814,0.098561,0.471847,0.989429,-1.971532,-0.535569,-0.022306,0.323290,-1.971134,-1.774197,-1.076127,-0.646919,-1.227656,-0.477220,-0.389276,-1.242301,1.376423,-1.743060,-0.249101,0.233006,-1.724778,0.000147,-1.447323,-0.579158,-1.863142,0.552078,0.598339,1.871720,1.942613,1.639072,0.229351,-1.326204,-0.925431,0.200658,0.272439,0.345205,1.276406,0.904519,-0.778308,-1.389981,-2.265518,-0.880485,-0.417919,-1.963201,2.431682,1.045053,-0.820549,1.569634,0.161974,-0.413107,1.324940,2.240181,2.014123,0.053572,0.024083,0.129255,0.948485,2.338516,1.784245,1.479029,0.434594,0.743461,0.013692,0.660754,0.320141,0.404388,0.154120,0.964164,-0.135600,-0.431332,0.260785,0.088227,1.331963,0.673968,-0.867496,-0.491639,-1.957253,-0.782284,0.622919,0.686830,0.005342,2.894390,2.470100,1.037404,-0.104844,1.425119,1.386303,1.782212,-0.158698,0.027858,1.301584,0.341299,-0.208786,0.334658,3.916468,-0.849455,0.068755,0.974691,0.334897,-2.208392,-1.651615,0.003467,-2.178898,-1.816480,-1.616589,1.812597,0.584276,-0.439727,-0.571753,1.769601,0.551904,1.855576,-1.796288,0.554291,1.310773,-1.384340,0.144879,0.714626,-0.209535,2.208302,0.597611,2.179982,-0.680007,-2.407961,-0.003808,-0.163955,-0.275453,-2.303728,-1.651915,-0.774917,-0.930174,-0.229406,-0.890691,-0.519697,1.628175,-1.019729,1.693144,1.258466,2.616441,2.354473,3.234388,-1.222848,1.058720,-0.288791,-1.974768,-0.134053,-0.701575,-0.496251,-0.747772,-0.362832,0.656410,-0.274240,-0.032264,0.534437,-0.075348,-2.597117,-2.529290,-1.075872,1.018126,-1.152257,0.652953,-0.085756,-0.292179,-1.123136,1.832703,-0.096507,2.477557,-0.342431,0.161260,-0.236281,-0.469059,-0.889872,-0.072223,0.040191,0.169227,-1.227162,-1.632907,-2.230146,-0.535657,1.525968,-1.891159,-1.626146,-0.058767,-0.121113,-1.344907,0.820565,-2.829039,-0.592189,-1.195298,-1.720645,-1.087589,1.282870,0.460912,-0.775894,-1.498664,0.441713,-0.529752,-0.537204,-0.135379,0.752731,-0.823082,0.075630,0.121849,0.403841,0.902158,1.150009,-0.648496,0.308350,-0.485078,-0.802663,-0.158549,-1.675058,-0.857979,0.890797,-3.863395,0.032640,-2.459638,-0.880143,-0.851325,-1.783167,-2.208349,0.187159,1.192761,0.168177,-2.401875,-0.485626,-0.331479,-0.833411,0.260883,1.990223,-0.197840,0.712758,-2.142228,0.180830,-0.465503,-0.572570,-0.408184,0.335026,-0.146575,-1.218208,-0.523758,0.269541,-2.835673,-1.222771,0.377072,1.208961,-1.080272,-1.369044,-1.317632,0.145294,2.090651,-2.137335,1.556474,-0.009623,1.501230,-0.650715,-0.670916,0.533372,0.809799,-0.610413,0.097896,0.689389,-0.006621,-0.493583,-0.398539,-0.994466,-0.106618,0.006924,1.421418,0.709624,0.149161,-0.901049,0.063128,-0.152557,0.659584,0.484655,-0.135513,-1.891162,-2.281771,-0.773337,0.018899,-0.273903,0.874109,1.093201,-0.853751,1.263463,-0.303186,0.807969,0.656603,0.161197,-0.483427,-0.844374,0.030041,-0.527364,0.684964,0.127402,-0.282524,-2.666883,-1.246751,-2.569885,-0.052236,-1.811687,0.115737,-1.128256,-0.808031,-1.483440,-0.590749,-0.773839,-1.128465,1.106698,-0.838211,-0.105911,1.417429,-0.370889,0.478691,1.041967,0.562346,-0.781209,-0.416815,0.633863,-1.256009,-1.103839,-0.197378,0.542115,0.114519,-0.231968,-1.684580,-0.714713,-0.054877,-0.862355,-0.082322,-1.399295,-0.182120,0.095221,-0.671461,0.564623,2.160288,0.435343,0.117996,-0.926477,-0.572413,0.440069,1.929555,0.150014,-0.885532,0.520290,0.425357,0.013902,-0.389639,-2.087592,-1.969473,2.260046,0.297361,2.309262,0.568682,-0.001162,-0.939945,2.830764,-0.110143,-0.397311,0.423133,0.398310,0.004952,-0.535544,-0.110520,-0.493908,-1.202128,-0.645244,-1.746578,-1.038109,0.595404,0.905046,-1.169962,0.757476,0.475719,-0.221142,0.589855,-0.854694,1.718107,-1.200936,-1.753478,0.949730,-0.834236,1.262109,-1.325768,-0.017909,-0.074816,-0.041167,0.207538,-0.973565,0.949708,0.918282,-0.045206,-1.017847,2.124997
-0.372128,1.128400,-0.384898,0.127692,-1.678665,-0.030310,1.435729,0.579379,-0.227659,-0.772778,0.732914,0.854082,1.836337,-0.331789,0.852978,0.401785,0.209286,1.114688,0.490870,0.124068,-1.567196,1.106432,-1.146317,0.151256,-0.773278,0.042290,0.678338,1.812766,1.015676,0.842626,1.676015,0.515286,-0.494955,2.031107,-0.038439,1.757689,-0.595746,0.614829,0.571155,-0.036893,0.194679,0.189683,0.729524,-0.865359,1.138904,0.093545,0.865699,-0.369978,-2.535630,-0.486808,0.064528,-1.295740,0.559790,1.038001,0.164860,-0.325664,-1.280850,0.983114,-0.564607,0.770103,-0.537756,0.371190,1.830440,-0.627377,0.235896,1.577608,-2.148663,-0.715841,-0.337028,-1.591402,1.494187,-0.701242,1.049804,-1.097415,-0.292954,-0.978822,-0.190645,-0.073106,-0.678457,1.369701,-0.796497,1.088705,-0.468128,-0.053468,-0.016976,0.281119,-1.516989,-0.310068,-0.737624,0.404903,0.032369,0.095337,-0.410483,0.024354,0.212975,-1.861847,-1.119027,1.270333,1.137355,-0.917677,-2.283856,-1.522139,-0.434366,0.000547,-0.120560,-0.793904,-0.286304,-0.262323,-0.055461,-0.367097,-0.923775,-0.923756,-0.638095,-1.906956,0.151456,-0.070974,-1.703410,-0.877419,-0.386269,0.076569,-0.463822,-1.987819,0.816012,-0.974465,-0.932992,-0.164017,-1.125867,0.440141,-2.038691,0.511295,-0.192264,0.708835,1.027959,-2.032158,1.064971,2.624785,-0.017714,0.225316,-1.155142,0.293937,2.041557,1.060537,0.145669,-0.196476,0.139765,0.332786,1.249509,-0.411543,0.280280,0.424701,1.426680,-1.600806,-0.457252,-0.170297,-1.320258,-0.174804,1.406219,0.988663,2.189225,1.369800,-0.847839,0.118466,0.742047,0.519048,-1.045765,2.330418,-0.390507,0.017056,-0.397754,-0.218591,0.333130,-0.149182,1.925959,0.218287,0.269637,-0.562936,0.083023,0.884454,0.874940,0.809044,1.876470,1.583890,0.578844,0.825417,-0.063031,1.553578,-0.290703,-0.225067,-1.808001,1.488368,2.237024,-0.523621,0.873152,-1.070137,-1.496900,2.441126,-1.813770,0.138003,1.270025,-1.445558,0.722358,-0.529611,-0.452082,-0.821286,-0.024029,-1.249955,0.513840,-0.331975,0.694220,-1.217839,-0.960061,0.055873,2.281776,0.786715,-1.405263,1.083634,0.600632,0.886493,0.904307,1.258828,-0.191128,-0.318478,0.999494,-0.088062,-0.567534,-0.923013,-0.070732,0.319803,-0.902449,-0.122677,0.518210,-0.243603,0.854411,2.087635,-0.666760,-1.900078,0.094027,-0.633787,1.405964,-0.063711,1.213203,1.855701,0.475010,0.663330,0.460039,1.294201,-0.684473,-0.218226,1.312441,1.197626,0.317178,-0.044722,-0.766405,0.342629,-1.422706,-0.084112,1.024495,-0.165811,1.320576,-0.892162,-0.456595,2.017257,0.378311,-0.890259,1.466931,1.428538,0.911644,-0.592672,-0.367421,0.439308,0.571684,-1.940304,0.843047,-0.595756,0.858039,-1.146279,-2.142210,1.558481,-0.485317,-0.602134,0.632268,-0.300401,1.307418,-0.277103,0.215862,0.374511,-1.024012,0.195382,-1.687626,-1.917493,0.236522,0.578139,0.234277,-0.825153,-0.036574,-0.177077,1.897014,-0.521192,0.425582,-1.071175,0.481136,-0.761433,0.062097,-1.407188,-1.835987,0.746605,0.446320,0.158286,-0.096907,-0.064221,1.877238,-0.462631,-0.428875,0.499921,-1.337387,-0.803228,0.601086,-1.570888,-0.724975,1.428996,2.188714,1.367430,3.463387,0.239838,0.918785,0.735221,-0.897994,1.222195,0.274199,-0.608587,-0.354245,-3.542813,0.910319,0.809816,2.337530,-0.382951,-0.563915,0.268313,-0.237402,0.249898,-0.999336,-2.274762,0.018960,-1.186484,-0.658344,-2.464551,3.252808,3.417678,3.718968,1.679418,2.636978,0.144742,0.663708,-0.102880,0.706194,0.833967,0.976374,-0.603151,-0.700197,-0.060709,-1.906163,1.024415,-0.119892,-1.356256,-0.580195,0.770976,0.751549,0.607872,-0.620761,0.226134,-1.542771,-2.456073,-2.156207,-1.579851,3.840257,2.281560,1.408416,1.119049,-0.327215,-0.995367,0.679574,0.571174,2.219526,0.272919,1.456950,0.863100,-0.274085,-0.868169,1.127702,-0.250010,-1.109531,-0.848959,-0.762454,0.633511,0.707267,0.405289,-0.511695,-1.663103,-1.991237,-3.333827,-2.684394,0.844655,4.113196,3.901381,1.373137,1.999557,1.193238,0.064412,0.887982,0.820621,0.318188,-2.197338,0.322938,-1.560954,-0.554528,-3.224260,-0.267904,0.514564,0.711026,-0.138549,-2.169260,1.743229,-0.091143,0.045252,-0.111013,-1.899929,-1.847792,-2.391116,-1.821477,2.156713,2.691764,0.544503,-0.219963,0.577663,-0.069334,0.077061,2.415972,0.304948,2.965338,0.222740,-0.598076,0.146067,-2.780693,-0.482620,-0.066406,0.544600,-0.174177,0.883197,1.201040,0.779250,-0.624218,-0.745968,-0.275157,-1.066250,-1.990448,-1.741674,-1.461976,1.448553,2.033892,3.113601,0.128704,1.540438,0.784065,0.543184,-0.520759,3.116035,2.806637,0.288217,-0.137390,0.001804,-1.234226,-0.771365,0.968465,-2.243435,0.179615,0.825683,-0.896756,-1.411839,-0.434102,-0.324966,-0.111195,-2.316896,0.556149,-1.582926,-0.343817,3.117741,-1.172662,1.697299,1.597866,1.793642,1.186097,0.471634,2.631734,0.132195,0.315050,-0.040151,-0.096870,-1.788876,1.175073,0.749086,-0.468428,-2.048654,0.014013,-0.216991,-0.078318,-0.907708,0.536217,2.495897,-0.052086,-0.312379,0.077388,-0.981855,-0.734269,-0.884706,1.059562,0.888607,0.354534,0.408557,0.316574,-1.910858,2.515932,1.129084,1.410710,0.102755,-2.731529,-2.098627,-1.270525,-0.967274,-1.260237,-0.165523,-0.662083,1.877936,-0.477539,0.157360,-0.836299,0.356979,-0.805138,-0.493062,-1.172993,-3.288068,-0.710481,-1.266729,-0.734874,0.341877,0.961908,-0.968383,1.120458,-0.201880,-1.410531,0.627653,-0.720227,-0.920287,-1.520307,0.250679,-1.061168,0.137285,-0.641466,0.662319,0.387841,0.359304,0.133036,1.761925,-0.041190,0.397868,0.925644,0.437661,1.182708,0.902302,-0.197705,-0.169908,-0.704599,0.393934,-0.731492,0.168339,-1.217299,-0.679187,-0.571274,-0.275323,0.700296,1.427993,-1.374794,-1.699419,0.216826,-0.274048,-1.522307,-1.143925,0.193874,0.946198,-0.276455,-0.393500,1.335810,0.411786,-1.146563,-0.389144,-0.512995,-0.537195,-0.264576,0.809651,1.017406,-0.673325,1.365229,0.134053,-0.252326,0.446968,1.314035,-0.468412,1.252746,2.198104,-0.378567,0.553827,1.178885,-1.292198,0.729824,0.183787,-0.713899,-0.035603,0.700991,0.054231,0.443534,0.607013,-0.559498,1.463299,-1.535294,-1.279369,-0.960256,0.509014,-0.372180,-0.575045,1.151821,-0.310688,1.341313,0.990498,-0.556351,-0.341944,2.306160,-0.010122,0.504931,1.098991,0.883900,0.539115,-0.985281,0.045204,-1.793275,-0.061594,0.355497,-2.516589,1.166994,0.466460,0.829459,0.975820,1.103767,-0.063907,-2.232710,0.276957,1.284943,-1.327723,0.183230,0.546682,1.852448,0.614062,0.276194,0.501736,0.192622,1.520944,-0.687283,0.415203,-1.732123,-1.669011,0.483346,0.788048,-0.315573,0.659259,-1.051773,0.616797,-0.345218,-0.406356,-2.247118,-0.724600,-0.340737,-0.395243,0.848111,-0.901013,-0.493595,0.120739,-0.413647,-0.813976,-0.767612,-0.161240,0.568794,1.280723,2.215637,-1.636136,-0.924967,-0.338150,-0.186493,-0.718809,-1.625302,-0.558747,0.426864,0.903895,1.888498,1.184666,0.333375,-0.017737,0.200806,-0.193835,-2.028038,1.642261,0.714973,0.288334,1.072628,0.528778,0.405798,1.670614,1.059536,2.353385,1.361984,0.591122,-0.110461,0.755945,1.489784,0.671344,-0.600975,-0.556712,1.487216,-0.880374,0.753081,0.007559,-0.275188,0.392001,0.014926,-2.434028,-1.444491,0.591057,-1.993490,1.127745,-0.649097,0.499037,-1.270091,-1.383437,2.261173,0.675040,-0.822694,-0.439310,-0.508394,-1.037289,0.355182,1.199541,-0.208055,1.270556,-0.599476,0.194840,0.413873,1.401444,0.816080,-0.160022,0.257870,2.298532,-0.902760,-0.346853,-0.220145,0.996568,0.098491,-0.759860,1.524455,-0.083521,0.130918,-0.689733,0.189678,1.364764,-0.552275,0.396237,0.749971,0.560097,-0.207457,-0.035964,1.206854,-0.492314,0.126651,-1.602963,-0.824879,-0.457424,2.032489,-0.446562
1.388142,-0.998710,-0.932979,1.410047,-0.572432,0.599291,-0.117217,0.015941,-0.549397,1.544741,0.198362,1.475090,0.056358,0.356163,-0.743827,-0.163844,-0.272692,-1.579863,0.444518,0.238965,1.736424,1.348388,1.477634,0.174267,-0.831362,0.786868,2.367141,0.298638,-0.500676,-1.386172,0.845204,0.242739,-1.117402,-0.019616,-1.196802,-0.301494,1.513613,-0.145604,-1.150407,1.068055,1.505624,-0.127977,-0.240651,-1.145673,-0.516225,1.892687,0.084273,0.122404,0.868868,-1.248775,0.938765,0.356138,-0.883908,-0.639219,0.834312,0.404358,-1.663207,0.080725,-0.428804,-1.048794,-1.034447,-0.131889,-0.420769,-0.275795,1.126832,0.239939,-0.466426,-0.444533,-1.044886,0.344242,-0.365823,0.932868,-0.146324,-1.885099,0.560584,1.314296,0.351990,1.387126,-0.353480,0.142510,-0.449233,-1.700201,-0.138924,-0.090082,0.785970,-0.347535,-0.779625,-0.933118,-1.495771,0.557420,-1.137160,-0.391605,-0.542971,1.654086,-2.029196,-0.427243,0.033578,-0.366408,0.493048,-0.379021,-1.391976,-0.167401,0.388615,0.279578,0.694514,1.260261,1.083973,-1.127000,1.333800,-1.362043,1.065573,-2.055323,0.621218,0.535679,-0.949999,-0.241633,-1.003897,-1.610564,0.924762,0.139441,2.023287,1.631290,1.334335,-1.624995,1.577676,0.059656,-0.020769,1.628711,-2.144609,-1.046009,2.009992,0.696568,0.249965,0.245818,-1.198261,-0.694189,0.206260,0.334411,-0.095356,1.691071,2.348959,0.091001,0.474811,-1.810998,-0.539429,-0.337792,-0.106679,2.098526,-1.193661,0.369986,0.446391,0.057321,-1.867254,-0.556889,1.212523,-1.995571,-1.888968,-0.947472,-0.225609,-0.595481,-0.493085,0.729122,-0.308911,0.114762,-0.715077,0.006752,1.167711,-1.353872,-0.059428,0.084294,0.140292,-1.083613,-1.112032,0.142136,0.310972,-0.069916,-0.146688,-0.130058,-0.036323,1.437945,-0.519014,-2.327904,-0.533564,-0.470977,-0.295179,1.166780,0.844037,0.580560,0.748922,-0.702480,0.214706,1.133672,2.477762,0.270084,-0.427891,0.199631,-1.065829,1.425886,-1.225635,0.763339,0.157000,-1.052626,0.557823,0.109704,-2.201626,-0.621265,0.006262,-0.866735,-1.759843,-1.131313,0.236638,-1.069749,-0.152981,0.870820,1.278233,0.318775,-0.120773,-1.379775,-0.520394,-0.285192,1.085921,1.102228,0.864880,0.393146,0.669712,-1.092836,-0.255241,-0.256708,-1.765345,-2.362728,0.589924,2.543662,0.571379,0.805770,-2.341473,-0.692469,0.341833,0.604817,-0.458881,-0.662638,-1.814031,0.473260,-0.674720,-1.220118,0.142148,0.576316,-0.291618,-0.429550,-0.757287,0.461665,0.915860,-0.883819,-0.446755,0.633727,1.209743,1.816718,0.930235,-0.950679,1.056734,-0.561853,-0.191066,-1.410508,0.160593,-1.634064,-0.467300,-0.681547,0.697588,-0.173199,0.954642,-1.121646,0.045872,-0.562410,0.837673,2.438596,0.208699,0.142836,1.170577,1.561037,-0.539799,-0.365401,-0.016981,1.365765,0.561806,-0.174979,0.118701,-2.331580,0.140089,-0.727997,-0.636220,-1.554197,-0.002132,1.471722,-0.049592,2.809498,2.708313,1.184192,0.550504,0.486683,0.099526,0.269438,-0.608903,1.690977,1.629510,-0.348679,0.512428,-0.381626,-0.961126,1.758579,1.175610,0.869883,-1.235251,-1.651599,-0.320348,0.021907,0.990104,1.133243,2.097611,1.477538,1.566799,-0.026388,1.287830,2.793107,2.588309,0.325876,0.240243,1.669179,1.376730,1.647072,0.066807,1.744028,-0.388063,2.314705,0.635853,0.326164,0.329291,0.636443,0.266817,-0.793768,0.568433,0.874723,-0.379382,0.352125,2.851616,1.419746,-0.171260,2.366407,1.680323,4.437231,3.975645,3.018140,3.922777,1.192685,0.565290,-0.958097,1.010744,1.245074,-0.195736,0.781174,3.483908,0.287318,0.109289,-0.214406,0.495942,-0.456530,-0.811017,-0.600715,-1.672635,-1.131442,1.206511,-0.328871,3.774601,3.164847,3.928027,3.777359,1.927159,2.240917,0.735743,0.780754,1.931279,3.384905,1.415305,1.043377,0.375438,-0.715893,0.884182,2.072189,2.992818,1.381017,1.116851,0.955369,-0.861560,1.419672,-1.463476,0.212509,-0.297589,-0.744241,0.569790,0.630171,2.294636,4.236996,4.868605,3.723185,3.010166,3.492324,2.927850,4.047315,1.916589,3.335972,0.678176,0.803176,3.026669,0.621613,2.170534,3.679754,3.499198,2.252108,1.934394,1.274258,-0.417887,-1.105888,-0.557717,1.539676,0.108455,-1.709692,-0.617943,1.609470,1.296614,3.798816,2.719917,1.661324,-0.774679,2.205959,1.439340,0.787309,0.706896,2.951972,-1.070771,2.396948,-0.164058,1.939709,3.827274,4.809970,4.529511,1.079816,0.853136,0.773750,0.099220,2.406719,-0.014741,0.790226,0.614983,-0.958925,0.137955,-0.119955,1.907851,0.570177,-0.402336,-3.441631,-1.056034,0.632926,0.123063,-0.288383,0.283782,1.496018,-0.163478,0.508441,3.034666,4.322817,4.868047,4.690899,3.645737,1.320129,3.804395,0.098888,-0.088214,0.248524,-0.775504,-0.212306,-0.652799,-0.769259,0.114680,2.038231,0.493126,-0.829467,-0.832975,-0.526701,-1.718217,-0.694238,-1.019340,1.003468,0.527064,0.059385,0.101804,1.506622,5.473565,6.485578,6.276736,3.244803,5.070820,3.598585,0.855493,-0.294344,-0.550276,0.446542,-0.863940,0.098000,-0.474577,-0.857418,-1.505188,0.971629,0.966460,0.345459,-3.495015,-3.089193,-1.655921,-0.284142,-3.244140,-0.190397,1.598208,4.555646,2.875919,5.995501,4.497718,5.005446,4.108296,3.420254,2.011057,0.196404,1.120984,-0.811902,-0.192946,0.607049,-0.468724,0.501454,-2.713230,-0.026050,0.211049,2.605394,-1.060917,-0.606032,-0.388134,-0.822289,-1.918333,-2.106658,-1.999904,-2.700092,-0.804858,1.369590,2.445005,2.130503,0.656320,1.494102,-1.690457,-0.285047,-1.496662,1.093918,1.030907,-1.961131,-0.744835,-0.424813,1.179742,-0.572359,1.787710,-1.419470,-0.511962,0.968245,0.340700,0.310125,0.875361,-0.360279,-0.854310,-0.269843,-0.718001,-1.127411,-1.726535,-1.693194,-0.401833,-0.798039,-0.961057,-2.462625,-3.101671,-1.313968,-1.906147,-2.643948,-0.367397,1.558562,-0.422659,-0.637522,-1.929206,-2.281611,-0.181356,-1.670900,-0.483335,-2.658477,-0.171237,-0.794839,0.360896,-1.185650,0.351416,-0.307532,-1.660316,-1.142370,-1.145507,-2.008538,-4.670815,-3.491045,-2.276144,-4.444390,-0.941054,-1.587566,-1.376729,-3.008650,-2.923977,1.522605,-0.618376,0.444620,0.832704,1.394265,-0.463187,0.589740,-0.996674,-0.765924,-1.138101,0.457201,-1.719192,-1.814185,-0.025802,-1.963774,-0.603432,-1.088431,-1.494923,0.592483,-0.316022,-0.536894,-3.877490,-0.409836,-1.790395,-2.919727,-3.156165,-0.564459,-0.144191,-1.101277,1.300373,1.700366,-0.112300,0.164936,0.566171,1.551510,-0.834248,-0.910015,-0.588179,-0.262957,-0.065952,-2.116106,1.264980,0.456378,-1.417829,-0.290443,-1.609309,-0.536085,-0.340131,-0.550978,-2.123277,-2.441800,-2.073275,-2.538090,-2.850500,-0.028132,0.063031,-0.570721,-1.243512,0.335973,-0.406500,-0.734121,-0.618800,0.752051,2.339014,0.752041,2.252068,1.719621,2.537147,1.144538,1.388880,-0.471395,-0.144401,0.082278,0.067228,-1.981324,-0.689464,-0.243298,-1.859460,-4.322210,-0.467054,-2.312404,-0.776804,-0.571774,0.365372,1.091570,0.083890,-0.084643,-0.970189,0.686977,0.484903,1.423857,1.494321,0.064716,0.189127,1.728446,0.646509,1.212380,2.726657,0.547956,3.807071,1.177895,0.616653,-1.347100,-3.205757,-2.210560,1.504828,-0.081882,0.010409,0.348195,-0.191918,-0.574305,-1.597770,-0.080428,1.351668,0.542223,1.742829,0.581868,0.310085,-1.156941,1.094816,0.952121,0.867233,0.195777,-1.348853,-1.159311,-0.332769,1.197131,-0.090555,-1.839452,-1.332293,0.633122,1.299234,0.113209,-0.143557,1.855679,-0.551980,-1.323408,1.341426,-0.466828,-1.244531,-0.034361,-1.559558,1.102685,-0.287693,-1.488789,-1.462491,2.083559,-0.040303,-0.315397,0.950404,-0.504922,1.075118,0.693353,0.748898,0.435849,0.438313,1.994110,0.623890,-0.509314,0.483564,-0.037878,0.273522,-1.251577,0.308956,1.689773,0.042994,-0.253685,0.399712,-0.210151,-0.375840,-1.732587
0.587554,0.435296,0.576794,1.081891,-0.152233,-0.139884,-0.212206,-0.125530,0.187708,-0.430914,0.952064,0.283864,-0.501207,-2.074342,-2.063107,-1.911929,-0.649702,-2.499501,-2.876096,-0.346893,-1.150005,1.319756,0.050454,-1.556044,-0.004629,1.030210,1.881675,-0.937351,0.591867,0.608960,0.448561,-0.129410,-0.083205,-0.365179,-0.460342,0.829364,-0.365067,0.893674,-0.433179,-1.328299,-0.922817,0.972563,0.212710,-2.420539,2.491362,-0.566926,-0.739420,0.506007,-0.387882,0.170123,0.737151,-0.444056,0.736000,0.558724,0.202105,0.350999,1.148810,-2.150507,0.848867,1.328767,-1.492015,-0.017524,-0.863063,-0.203046,1.549035,-2.319897,-1.372388,1.577499,0.511634,-0.155801,-2.208158,-0.146547,0.735482,-0.986518,-0.058918,0.761767,1.082972,-0.213795,0.843308,1.965169,0.057246,-0.834915,-1.309928,0.259328,0.745092,1.095831,0.132370,0.606824,-0.094702,0.496456,-1.430397,-0.569658,-2.726450,-0.509243,0.134962,-2.024540,-2.186908,-0.866832,-2.545497,-2.016378,-3.460602,-1.276828,-0.458711,-1.709330,1.436441,2.851077,2.658052,-1.561655,0.994742,-0.932731,0.469855,0.980158,-0.357323,0.624859,1.233529,-1.041680,-0.183640,0.428893,0.366354,1.994942,-1.311045,-0.766191,-0.061883,-1.907930,-1.397089,-2.281977,-2.931813,-1.922218,-4.376433,-2.326245,-1.564274,0.052335,-0.340510,1.989334,0.618962,1.435890,0.382138,0.473803,0.559619,0.922609,-0.140411,0.916975,-0.166553,-1.586051,-0.149331,-0.647615,0.569979,0.915857,1.878133,0.242993,-0.683770,-1.119197,-1.862333,-3.191690,-1.762344,-1.572687,-1.072783,-2.129465,-1.754584,-0.633399,-1.617667,0.447795,0.944449,0.463977,1.231532,-0.697475,-0.330381,-1.364295,-0.036032,-0.317046,0.493783,-0.621176,2.005025,0.097015,0.451173,-0.411052,2.599074,1.329553,-0.056120,-1.039596,-0.167948,0.117794,-0.577248,-0.017528,-0.847719,-0.050468,1.057550,-1.345170,-1.628480,-2.145524,-0.465862,0.656620,-1.404938,-0.746135,0.777510,-0.277144,1.572113,0.032466,1.664458,1.857865,-0.328138,1.337290,1.533592,0.420005,-0.581310,-1.355989,2.030541,0.582699,1.300357,0.049929,0.155189,-0.128147,-0.617900,1.412218,-1.480154,-0.151471,0.584399,-0.012747,-0.486021,-0.065227,-0.812998,0.523382,-0.177794,2.348099,-0.519375,-2.048684,1.075801,-0.996495,1.297652,0.253973,-0.910173,-0.297313,1.032037,1.131722,-0.941076,0.495775,1.123514,-0.889943,0.736458,-0.043216,-0.518289,-0.377167,3.235163,-0.958815,0.075768,-1.283505,-0.046801,-1.894801,-0.094934,-0.040035,-0.633250,-1.098063,-0.811249,-0.443170,-1.290183,1.049967,0.682338,-0.945108,-2.329632,0.548634,-1.256870,-0.785235,1.162597,0.234619,3.013526,0.725888,0.006233,-0.499542,-0.503321,0.492760,1.095679,0.266168,1.263266,-0.936497,1.261045,-1.332035,-2.353871,-2.540305,-0.912363,0.233736,-0.107247,-0.867780,0.009345,1.760425,1.101126,0.294518,-0.618715,0.950937,0.678750,3.755507,-0.309744,0.318783,0.780802,1.920562,-1.658050,1.255935,0.204025,1.229020,-1.229645,2.419820,-2.562846,-0.203074,-0.215165,-2.514777,-5.267639,-2.698660,-1.209307,1.553664,1.371794,0.887344,0.335287,-0.368786,0.918241,0.528424,1.192643,0.366451,1.278925,0.366502,-1.752971,2.308301,2.604685,-1.774259,0.299015,3.243843,2.184880,3.879949,-0.973120,1.184357,-0.027773,-0.324053,-0.457316,-2.375772,-4.492275,-1.495302,-0.451300,-0.158945,0.286027,0.899977,-0.920586,0.279543,1.690395,-1.057874,-0.326552,0.080212,1.600714,-0.313244,2.595620,0.021429,1.445264,-3.410636,-0.585187,4.168898,3.671174,2.196131,2.399182,0.697079,0.088370,-2.405078,-1.020150,-2.544576,-3.147374,-0.193716,-0.156181,0.196972,-0.308768,-0.966227,0.468566,0.875914,0.918812,0.620204,1.720138,3.243088,1.416731,0.178473,-0.637472,0.375231,-1.766260,-0.384501,1.017868,3.653872,1.648924,3.669314,0.932986,2.502944,1.386266,0.418004,-1.234597,-1.252821,-1.789102,-0.700360,-1.041343,1.712062,0.414284,0.693941,-0.362954,1.642689,-0.538501,2.115039,2.042154,1.666963,0.499753,1.758706,1.748705,0.016115,-1.698227,0.904528,-2.976928,0.902505,3.848428,2.748977,2.276990,3.373988,3.362873,1.316403,0.559732,-1.454342,-2.129840,-0.058166,-0.376358,0.529785,0.679346,-0.074832,-0.160023,1.867801,-1.321734,1.701584,3.758271,0.572577,1.534035,-0.781728,1.147920,-1.567287,-1.314618,-1.261122,-0.382257,2.443394,1.919762,4.293864,1.623074,4.577213,0.466675,2.368437,0.926208,-1.077344,-0.570516,-0.171430,-0.075311,1.550449,0.762763,1.158348,0.543566,-1.866584,0.773455,-0.045840,2.609559,3.794444,0.380641,-1.722518,0.083977,0.838048,-0.599568,-0.759000,0.837332,2.621021,0.333222,1.507956,3.187156,1.940224,-0.038416,0.858275,-0.031457,-0.581141,0.171754,-0.720408,0.094732,-0.550314,-0.622423,-0.389432,1.731368,1.337624,0.920284,0.611496,1.435477,1.665893,2.048993,-0.061729,-1.319151,-0.772306,-0.748557,-0.335909,-0.169568,1.931396,3.020394,1.173839,2.626919,2.362021,0.576839,1.630198,-1.978225,0.148830,-1.400538,0.927729,3.872009,-2.209371,1.394364,0.658363,-0.880889,-0.012523,-0.553219,1.606060,-0.480602,-1.182696,0.111253,-1.916169,1.817729,0.400435,0.392875,0.903344,1.930687,2.336140,1.653172,-0.555387,-2.732761,0.239316,-1.659799,-1.585110,-4.143212,-1.111827,-0.801626,-0.616654,-0.629714,1.528066,0.099046,2.169657,-1.107053,-1.552999,-0.009748,0.625410,-2.833944,-0.831288,-3.088434,-2.195757,-2.872034,-1.072227,-1.588201,-1.194498,1.094352,-0.377277,-1.992948,-2.437602,-3.730291,-1.538793,-1.590711,-2.003307,-4.310600,-2.937355,-0.551648,0.688978,0.323660,1.796189,-2.921987,0.427953,1.073671,-0.070755,-1.111584,-3.141671,-6.150764,-4.266963,-4.597243,-4.905982,-5.521989,-5.954428,-5.799213,-2.835845,-3.236371,-2.398238,-1.181369,-2.066103,-3.513841,-3.671826,-5.154921,-4.548125,-3.256223,-1.599973,0.105422,-1.491966,1.027359,0.466637,-1.349162,0.224896,-0.596144,-0.066298,-1.136462,-2.947300,-5.096470,-5.605865,-4.843266,-2.517679,-3.930580,-2.586951,-2.422846,-3.477036,-4.973819,-3.927137,0.477218,-6.335264,-2.909496,-4.092277,-5.577017,-2.871350,-4.222466,-1.390087,-0.566085,1.085119,-0.128023,0.842911,0.429888,0.409100,0.523899,-1.025119,-0.719625,-2.818588,-2.217062,-2.171356,-0.143400,-0.008947,-0.798353,-1.838504,-2.340000,-2.847708,-0.725609,-2.807432,-2.157671,-2.486455,-2.639275,-1.813922,-4.430609,-1.730678,-1.374242,-1.514240,-1.787873,0.547798,-2.424479,-1.996584,-0.462485,1.090952,0.123890,-0.411450,0.770662,1.171385,0.687216,0.471804,-0.203586,-0.847667,-0.196478,-3.349675,-2.712733,-3.518457,-1.418860,-4.302372,-4.463944,-3.355584,-1.053304,-1.645800,-0.684085,1.564009,-0.869824,0.089629,-1.510392,0.264180,-0.957839,0.979382,1.538944,1.508820,-0.203483,-0.213629,1.793115,2.103495,1.640131,0.884208,-0.133128,-2.464922,-0.291904,-2.222596,-4.067982,-2.966404,-2.651374,-3.314709,-3.443395,-0.170522,-2.404952,-2.398333,-1.111724,0.895138,-0.120118,1.670192,-0.089646,0.342085,-0.211349,1.513403,1.743928,0.559002,-1.279770,-0.384836,1.832153,1.952312,0.688520,2.758391,1.574076,0.698221,-1.813145,-0.009390,-0.713444,-0.464668,-0.350614,0.564958,1.458661,-0.539595,-1.662444,-0.328559,0.927802,-0.101247,-0.346547,1.064898,-2.481664,2.723651,-0.086291,1.623979,-0.245021,0.415760,0.027347,-1.153362,-1.180507,0.866501,0.495859,0.492611,1.053486,0.637819,0.257269,-0.740200,-0.534994,0.310250,2.321574,1.283426,0.475705,1.292303,1.189953,-0.239376,-0.517521,0.607157,-0.434617,0.947035,0.253891,0.203188,-0.540751,-0.663325,-0.512080,0.550020,0.246376,1.742090,2.056324,-2.931670,1.322359,-0.575230,-0.776466,-1.355481,-0.048646,-1.943590,-0.089012,-0.243248,0.441441,-0.955933,-0.618962,0.600421,1.032432,0.927903,1.092706,-0.463091,-2.179180,-0.436472,0.627981,0.812819,-1.098315,0.290053
1.092454,0.785121,0.325970,0.485324,-0.063640,1.929717,-1.032919,1.253523,0.302303,0.657633,-0.187796,0.560639,0.291013,0.656777,1.765446,1.157740,-1.076868,-0.575783,0.363986,0.577229,-0.823603,0.526195,0.198165,0.398770,0.894660,-0.089429,0.951639,-0.608352,-0.672246,-0.178120,-0.658060,-0.860754,-0.964368,0.658551,-0.045726,0.811750,0.822605,1.309561,-0.127104,0.563042,0.512566,1.057692,-0.231088,-0.749643,-0.024347,1.169017,0.206175,-0.066052,-0.934615,-0.180183,0.110389,-1.098898,-0.335767,1.699033,0.912170,-0.111715,0.543173,1.488085,1.512571,0.455259,-0.848465,0.617029,0.768074,0.031564,1.050764,-1.463277,0.463786,0.759036,0.701315,-0.974621,1.575840,0.642129,0.836900,0.243996,-0.943647,2.209011,1.272873,0.665934,2.659550,-0.738703,0.237382,-0.196209,0.698305,-0.306497,0.864158,0.337509,-0.779748,0.303078,0.836858,0.790672,0.740649,0.130317,0.390642,1.561869,0.322881,0.446571,-0.693767,-0.305479,-0.347228,-0.256180,-0.172886,-2.030775,0.319908,1.439524,-0.060202,0.952183,1.376087,0.690644,1.559897,0.289505,0.340150,1.077255,-0.180986,-0.496618,0.834329,0.781632,0.698203,-0.659015,0.140180,-0.709749,0.636148,-0.737482,-0.525341,-3.106410,-1.631608,-1.379604,-0.504837,0.009602,1.298225,0.484131,-0.809563,-0.203788,1.814211,0.945082,0.099949,0.003563,-1.002646,0.395997,0.085299,-1.055069,-0.508589,0.043225,1.081347,-1.392853,-0.729663,-0.242467,0.163267,-1.028356,-1.554754,-1.423776,-2.783674,-2.364398,-0.651988,-0.145847,1.320052,0.010879,-0.727332,-0.602129,-1.669556,-0.789805,-1.693529,0.265377,-0.317784,1.595602,-1.050015,-0.779706,1.051323,0.454384,-0.747464,-1.281069,-0.787968,-0.070265,-1.587713,-0.056323,-1.248568,-0.642185,-1.604030,-2.078340,-1.603400,-1.287245,-1.860478,-3.065693,-2.181690,0.018878,-2.994520,0.205879,-1.617790,-0.880549,-0.264825,-1.682673,-0.795317,-0.664404,-0.913053,-1.609745,-1.243542,-0.193006,0.152036,-0.980204,0.894390,-0.459162,-0.061364,-1.484203,-2.708571,-0.607613,-2.852940,-1.547224,0.291262,-0.556970,-0.298575,-1.615858,1.251222,-1.391756,-2.555507,-1.630354,-1.745154,-0.901934,0.398279,-0.557229,0.547077,-0.899922,-0.625940,-0.838518,0.518120,1.119841,1.474451,2.205357,1.138003,1.227669,-1.841197,-1.378801,-1.638796,-2.154403,-1.974508,0.987117,-1.953511,0.377965,2.390314,-0.834207,-1.468100,-1.902774,-2.486545,-1.368552,-4.249569,-1.633071,-1.107101,-0.722581,-2.182439,-0.497784,-2.838337,-1.275218,-0.281049,-0.538078,-0.087172,-0.855340,-0.088473,-0.069066,-1.960340,-2.446972,-1.531609,-0.460796,-2.107643,1.045864,-1.361891,0.892529,0.797162,2.967813,0.447937,-0.298269,-2.047084,-3.502636,-1.322794,-1.004299,-1.587483,-1.158106,-1.962935,-1.509269,-2.633429,-0.365139,-0.008211,-1.728611,-0.538847,-0.553345,-1.397939,-0.913563,-0.809740,-3.218037,-1.770945,-0.638504,0.119443,-0.681015,-0.067131,-1.549192,-0.957007,1.697671,-0.188127,2.172737,-1.640123,-2.961013,-1.530466,-1.621693,-0.824791,-1.692886,-0.097463,-0.516615,-2.615217,-1.544031,0.654359,-1.204990,1.400733,0.312834,-0.161747,0.132597,-1.332821,-2.380958,-0.504331,1.208191,0.452136,0.259948,1.454157,-0.506346,-0.630973,1.267235,1.112890,2.128352,1.400455,-1.603522,-0.286140,1.638826,0.260257,1.169577,1.428930,0.216423,-0.465714,0.467757,-0.944889,-0.041964,-1.707701,0.157075,-0.313108,-1.786948,-2.312444,-0.948146,-0.094405,-0.173728,-0.522100,0.497574,0.596613,1.529848,-0.491565,0.104563,1.718832,2.890950,1.989682,-0.521214,-0.586586,0.254276,1.907821,4.029466,3.148213,2.994389,0.263524,-0.053882,0.795559,-1.021999,-0.395070,-1.353677,-1.838853,-1.950598,-2.141081,-0.348759,1.355231,0.362299,0.286476,-0.069067,-0.117613,1.139968,-0.146788,-0.088430,-0.109827,3.051168,0.888871,0.799364,0.392165,-0.138195,1.599450,1.221494,2.826973,0.662070,0.414883,-1.284186,0.262484,-1.048562,-0.259212,-1.094173,0.372115,-0.350426,-0.635296,-1.924775,-0.395150,0.675641,3.015829,1.040999,-0.612247,-0.521366,1.298209,-0.463381,0.771869,3.146844,2.240327,0.671175,-0.393740,-0.725360,-1.086492,1.587335,0.437857,-0.529067,0.109688,0.795879,-0.611797,0.921092,-0.036656,-2.334384,2.132829,-1.074117,-1.158077,-0.382668,0.307870,1.337439,0.553624,0.629986,0.935667,0.257782,1.333561,0.085842,1.706260,3.450708,1.723260,-1.215787,-2.753200,-2.006345,-2.480226,-1.296715,0.841403,-1.533895,1.695075,-0.172982,-0.757409,0.318973,-0.611554,-0.682678,-0.905923,1.200169,0.059295,-1.966296,-1.191355,0.023173,-0.262808,2.977069,1.299284,3.275060,0.968742,1.533754,3.573986,2.443062,-0.917814,-1.955600,-2.466892,-0.071975,-2.859660,-2.177065,-1.334389,-0.184106,-1.138035,0.098530,-1.250708,-2.259240,0.250860,2.148708,-0.988926,-1.125838,-1.161432,-3.074301,-2.072117,-1.293749,1.302553,1.687835,2.929927,2.418059,2.269436,2.979960,2.799120,-2.931168,-2.888123,-1.133045,-1.923204,-1.563482,-0.840049,-1.505795,-1.010981,-1.103009,-1.369434,-1.110488,0.883487,-0.347889,-0.201265,0.439300,0.663656,-1.399868,-0.994642,-4.170333,-3.111159,-0.547367,1.620122,1.826596,2.737587,2.687397,1.354336,-0.231630,0.130685,-0.506250,-2.502099,-3.013836,-0.898869,-1.403144,-1.270744,-1.392130,-1.862573,-0.754996,-2.759487,0.589757,0.473369,-0.173699,0.859825,0.239407,0.438568,0.064497,-1.021827,-2.336412,-3.274191,1.097853,-0.459866,2.151355,3.448846,1.966890,0.978747,-1.156835,0.699875,-0.182604,-0.934379,-2.145017,-2.094888,-1.042571,-1.099854,-0.533321,-2.412494,-0.169248,-1.011705,-1.865590,-2.113269,2.583579,0.914699,0.492939,0.071496,-2.321166,-1.779642,-1.778100,-0.990494,0.117792,-0.711373,0.518580,-1.650690,2.834002,-0.796352,-0.914807,0.694567,1.277416,0.718642,-0.262256,-0.402598,1.502981,0.338957,0.864644,-1.876463,-1.429702,-0.462793,0.461603,-1.671942,1.915921,-1.022353,0.957344,0.707491,-0.209821,-0.829824,-2.267650,0.447893,0.391092,-1.486868,-2.001692,-0.338665,0.096344,2.600288,-0.295075,0.513138,1.391630,-0.349225,0.556419,2.428602,0.010667,1.359376,-2.426929,-2.123034,-1.677077,1.423665,0.601306,0.487516,-0.546328,1.110917,-0.388488,0.103859,-0.821192,0.489861,-0.797903,-0.320542,0.089878,-0.538555,3.299609,0.039530,0.702932,-0.006267,-0.190612,0.116613,0.299393,1.187382,0.848478,2.362575,2.249619,-1.344744,-1.001864,-0.129568,-1.438334,0.791600,-2.398759,0.021308,-1.085157,2.255866,0.619272,0.852750,0.577018,0.022198,0.117591,-1.079285,-1.715344,-0.367493,0.029501,-0.121699,-1.968867,1.170025,0.297923,-2.017415,-0.942359,-0.687166,2.263832,0.361415,-0.868538,-0.163239,-0.298986,0.912718,-1.475659,-1.582770,0.653690,-0.494033,1.761607,0.429808,0.177445,-0.589355,-0.118450,-0.126459,-0.245861,-2.563905,-2.199229,-0.110621,-0.949119,1.192535,0.075027,-0.387096,-0.961259,-0.152239,1.472193,-0.926997,1.422884,0.292443,-1.493248,0.201942,0.308707,-0.412749,2.124566,1.088087,-2.114458,-0.294997,0.772508,0.940894,-2.113926,-0.596529,-1.333944,-1.720498,-0.135655,0.687523,-2.082085,-0.753309,-2.046339,-0.581604,-1.470121,-2.643490,-2.106509,-2.607697,-3.635680,0.290808,-1.772448,-0.945985,0.714463,1.171872,-1.132303,-1.640965,0.082753,0.526554,-1.972611,0.570415,-0.113396,0.325904,0.766973,-0.305181,0.368332,1.354993,-1.291717,-0.808591,-0.923802,-0.197657,0.340177,-0.390916,0.829319,1.004411,-0.332779,-0.513571,1.360973,0.185831,0.520754,0.388849,-0.461601,0.701645,-1.548132,-0.817177,-1.130163,-0.048059,1.246230,2.295494,-1.442486,1.378556,-0.528183,1.743531,1.044317,-1.315172,0.366383,-1.022301,0.261770,-0.774815,-0.225691,0.628435,-0.341753,-0.213286,1.072408,-0.755837,0.604097,0.056016,0.806869,0.102335,-0.217065,1.169303,-0.463012,-0.626059,-2.014765,-1.059912,0.728902,-0.277848,-1.463907
